/*!
 * The following copyright notice may not be removed under any circumstances.
 * 
 * Copyright:
 * Copyright (c) 2007, Stephen G. Hartke (lastname at gmail dot com). Licensed
 * under OFL 1.1 with Reserved Font Name Aurulent.
 * 
 * License information:
 * http://scripts.sil.org/ofl
 */
Cufon.registerFont({"w":710,"face":{"font-family":"Aurulent Sans","font-weight":400,"font-stretch":"normal","units-per-em":"1000","panose-1":"2 0 5 3 0 0 0 0 0 0","ascent":"800","descent":"-200","x-height":"12","bbox":"-75 -1001 926 211","underline-thickness":"71","underline-position":"-1","stemh":"71","stemv":"95","unicode-range":"U+0020-U+2423"},"glyphs":{" ":{"w":250},"!":{"d":"174,-565r-9,370r-76,0r-9,-370r0,-158r94,0r0,158xm174,0r-94,0r0,-95r94,0r0,95","w":255},"\"":{"d":"310,-770v3,87,-3,166,-14,240r-67,0v-10,-74,-17,-152,-14,-240r95,0xm135,-770v3,87,-3,166,-14,240r-67,0v-10,-74,-17,-152,-14,-240r95,0","w":350},"#":{"d":"392,-445r-122,0r-32,167r122,0xm615,-495r-9,50r-147,0r-32,167r147,0r-9,50r-148,0r-43,228r-67,0r44,-228r-123,0r-43,228r-67,0r44,-228r-147,0r9,-50r147,0r32,-167r-147,0r9,-50r148,0r43,-228r67,0r-44,228r123,0r43,-228r67,0r-44,228r147,0","w":630},"$":{"d":"298,71r-53,0r0,-71v-66,-2,-140,-23,-205,-62r0,-77v66,39,140,66,205,68r0,-263v-90,-28,-205,-85,-205,-208v0,-99,89,-167,205,-179r0,-73r53,0r0,71v50,2,109,15,165,37r0,88v-54,-22,-110,-45,-165,-52r0,233v117,45,194,105,194,213v0,113,-84,186,-194,201r0,74xm245,-436r0,-215v-59,7,-110,40,-110,96v0,66,67,102,110,119xm298,-311r0,236v58,-12,99,-49,99,-111v0,-60,-38,-96,-99,-125","w":532},"%":{"d":"581,-57v95,-1,94,-239,0,-240v-95,1,-94,239,0,240xm726,-177v0,92,-59,177,-145,177v-87,0,-145,-85,-145,-177v0,-93,58,-177,145,-177v86,0,145,84,145,177xm185,-426v95,-1,94,-239,0,-240v-95,1,-94,239,0,240xm330,-546v0,93,-58,177,-145,177v-86,0,-145,-84,-145,-177v0,-92,59,-177,145,-177v87,0,145,85,145,177xm687,-741r-515,759r-93,0r515,-759r93,0","w":765},"&":{"d":"463,-48v-133,128,-423,65,-423,-156v0,-114,85,-199,160,-220v-30,-45,-46,-97,-46,-144v0,-100,72,-173,162,-173v87,0,160,69,160,163v0,90,-69,167,-138,197r131,199v23,-53,34,-116,34,-180r79,0v0,91,-22,181,-66,250r73,112r-93,0xm288,-450v62,-30,93,-78,93,-131v0,-48,-26,-89,-66,-89v-88,0,-78,160,-27,220xm135,-203v-2,171,204,186,287,95r-172,-248v-77,28,-115,83,-115,153","w":630},"'":{"d":"134,-770v2,94,-2,181,-11,264r-72,0v-9,-83,-13,-170,-11,-264r94,0","w":175},"(":{"d":"250,129r-81,0v-61,-144,-129,-304,-129,-444v0,-140,68,-300,129,-444r81,0v-61,142,-115,289,-115,444v0,155,54,302,115,444","w":250},")":{"d":"210,-315v0,140,-68,300,-129,444r-81,0v61,-142,115,-289,115,-444v0,-155,-54,-302,-115,-444r81,0v61,144,129,304,129,444","w":250},"*":{"d":"448,-282r-33,58v-54,-30,-100,-67,-150,-101v3,54,12,107,12,160r0,20r-66,0v-2,-63,8,-119,12,-180v-45,30,-86,64,-133,91r-17,10r-33,-58v50,-31,108,-54,162,-79v-54,-27,-112,-48,-162,-80r33,-58v54,30,100,67,150,101v-3,-54,-12,-107,-12,-160r0,-20r66,0v2,63,-8,119,-12,180v45,-30,86,-64,133,-91r17,-10r33,58v-50,31,-108,54,-162,79v54,27,112,48,162,80","w":488},"+":{"d":"534,-259r-208,0r0,199r-78,0r0,-199r-208,0r0,-72r208,0r0,-199r78,0r0,199r208,0r0,72","w":575},",":{"d":"174,-32r-71,174r-59,0v13,-78,40,-142,36,-237r94,0r0,63","w":255},"-":{"d":"260,-259r-220,0r0,-72r220,0r0,72","w":300},".":{"d":"174,0r-94,0r0,-95r94,0r0,95","w":255},"\/":{"d":"279,-759r-199,888r-81,0r199,-888r81,0","w":278},"0":{"d":"275,-53v119,-14,135,-191,135,-310v0,-120,-16,-294,-135,-309v-118,14,-135,191,-135,309v0,121,16,295,135,310xm275,-743v96,0,240,72,240,380v0,310,-144,381,-240,381v-96,0,-240,-71,-240,-381v0,-308,144,-380,240,-380","w":550},"1":{"d":"494,0r-388,0r0,-71r153,0r0,-572r-153,60r0,-71r172,-75r76,0r0,658r140,0r0,71","w":550},"2":{"d":"470,-539v0,196,-288,286,-336,468r336,0r0,71r-430,0r0,-78v71,-211,335,-281,335,-461v0,-74,-61,-133,-135,-133v-64,0,-126,20,-182,51r0,-79v56,-31,119,-43,182,-43v123,0,230,86,230,204","w":550},"3":{"d":"393,-205v0,-110,-113,-153,-230,-143r0,-71v114,10,212,-37,212,-132v0,-56,-23,-121,-115,-121v-56,0,-110,15,-162,36r0,-81v51,-20,107,-26,162,-26v133,0,210,79,210,192v0,81,-62,137,-143,163v150,26,161,149,161,183v0,137,-97,223,-228,223v-61,0,-123,-7,-180,-30r0,-82v58,24,118,41,180,41v81,0,133,-61,133,-152","w":550},"4":{"d":"438,0r-95,0r0,-218r-333,0r0,-71r333,-436r95,0r0,436r67,0r0,71r-67,0r0,218xm105,-289r238,0r0,-312","w":550},"5":{"d":"175,-457v262,7,313,143,313,238v0,95,-49,237,-301,237v-37,0,-74,-2,-109,-16r0,-80v128,51,318,34,315,-141v0,-53,-21,-107,-67,-132v-67,-37,-142,-37,-230,-35r0,-339r374,0r0,71r-295,0r0,197","w":550},"6":{"d":"415,-225v0,-79,-42,-174,-121,-174v-86,0,-156,68,-156,154v0,97,49,192,137,192v110,0,140,-78,140,-172xm294,-464v126,0,216,88,216,239v0,194,-129,243,-235,243v-74,0,-142,-39,-179,-103v-49,-83,-56,-182,-56,-278v0,-99,13,-201,73,-280v76,-99,226,-130,350,-70r0,80v-41,-23,-85,-39,-132,-39v-78,0,-190,46,-196,281v38,-45,95,-73,159,-73","w":550},"7":{"d":"510,-640v-128,176,-240,393,-281,640r-96,0v48,-245,165,-467,301,-640r-394,0r0,-85r470,0r0,85","w":550},"8":{"d":"396,-574v0,-63,-56,-112,-121,-112v-65,0,-121,49,-121,112v0,72,76,110,146,135v56,-23,96,-74,96,-135xm415,-187v0,-89,-79,-152,-165,-183v-71,28,-115,103,-115,183v0,81,61,148,140,148v79,0,140,-67,140,-148xm510,-187v0,119,-110,205,-235,205v-125,0,-235,-86,-235,-205v0,-95,69,-171,159,-206v-73,-39,-130,-100,-130,-181v0,-101,98,-169,206,-169v108,0,206,68,206,169v0,75,-58,130,-130,158v91,48,159,129,159,229","w":550},"9":{"d":"135,-500v0,79,42,174,121,174v86,0,156,-68,156,-154v0,-97,-49,-192,-137,-192v-110,0,-140,78,-140,172xm40,-500v0,-194,129,-243,235,-243v74,0,142,39,179,103v49,83,56,182,56,277v0,100,-13,202,-73,281v-76,99,-226,130,-350,70r0,-80v41,23,85,39,132,39v78,0,190,-46,196,-281v-38,45,-95,73,-159,73v-126,0,-216,-88,-216,-239","w":550},":":{"d":"174,-435r-94,0r0,-95r94,0r0,95xm174,0r-94,0r0,-95r94,0r0,95","w":255},";":{"d":"174,-435r-94,0r0,-95r94,0r0,95xm174,-32r-71,174r-59,0v13,-78,40,-142,36,-237r94,0r0,63","w":255},"<":{"d":"508,-55r-468,-225r0,-30r468,-225r0,81r-324,159r324,159r0,81","w":547},"=":{"d":"534,-188r-494,0r0,-71r494,0r0,71xm534,-331r-494,0r0,-71r494,0r0,71","w":575},">":{"d":"508,-280r-468,225r0,-81r324,-159r-324,-159r0,-81r468,225r0,30","w":547},"?":{"d":"285,0r-95,0r0,-95r95,0r0,95xm510,-569v0,154,-235,150,-225,327r0,47r-95,0v-2,-61,1,-113,26,-153v53,-90,199,-108,199,-211v0,-75,-77,-111,-162,-111v-63,0,-132,20,-195,53r0,-78v155,-89,452,-49,452,126","w":550},"@":{"d":"566,-519v-7,-54,-35,-139,-176,-139v-164,0,-263,114,-263,361v0,285,126,396,346,349r0,62v-26,7,-54,9,-79,9v-203,0,-346,-121,-346,-421v0,-299,143,-419,345,-419v78,0,144,18,190,59v65,58,65,143,65,228r0,365r-79,0r0,-52v-115,102,-277,58,-278,-170v0,-208,140,-243,213,-243v23,0,44,4,62,11xm528,-483v-91,0,-151,66,-151,183v0,170,109,202,192,124r0,-300v-13,-5,-27,-7,-41,-7","w":735},"A":{"d":"648,0r-100,0r-76,-202r-305,0r-74,202r-83,0r265,-725r100,0xm444,-277r-127,-336r-123,336r250,0","w":658},"B":{"d":"388,-381v134,30,186,118,186,197v0,55,-21,103,-65,134v-107,77,-268,43,-429,50r0,-725v153,7,302,-27,403,48v48,36,66,88,66,133v0,65,-45,137,-161,163xm180,-75v135,1,292,18,294,-113v0,-43,-20,-82,-52,-110v-68,-58,-144,-44,-242,-46r0,269xm247,-419v91,9,203,-31,202,-124v0,-27,-10,-58,-38,-79v-57,-44,-144,-24,-231,-28r0,231r67,0","w":615},"C":{"d":"35,-362v0,-238,129,-381,337,-381v70,0,146,16,218,43r0,85v-126,-52,-281,-90,-375,8v-60,62,-70,156,-70,245v0,88,10,182,70,244v104,106,263,53,375,-17r0,93v-69,39,-146,60,-222,60v-202,0,-333,-143,-333,-380","w":630},"D":{"d":"480,-157v88,-103,91,-302,7,-412v-84,-110,-168,-75,-307,-81r0,575v131,-3,213,19,300,-82xm557,-619v120,131,118,387,-6,513v-135,136,-270,100,-471,106r0,-725v206,8,345,-38,477,106","w":687},"E":{"d":"570,0r-490,0r0,-725r478,0r0,75r-378,0r0,224r305,0r0,75r-305,0r0,276r390,0r0,75","w":598},"F":{"d":"542,-650r-362,0r0,224r292,0r0,75r-292,0r0,351r-100,0r0,-725r462,0r0,75","w":582},"G":{"d":"35,-362v0,-240,139,-381,352,-381v75,0,155,17,231,44r0,83v-134,-50,-297,-89,-398,9v-63,62,-75,155,-75,245v0,89,12,182,75,244v73,72,188,73,298,39r0,-191r-93,0r0,-75r193,0r0,316v-77,26,-156,47,-235,47v-209,0,-348,-144,-348,-380","w":657},"H":{"d":"630,0r-100,0r0,-325r-350,0r0,325r-100,0r0,-725r100,0r0,325r350,0r0,-325r100,0r0,725"},"I":{"d":"180,0r-100,0r0,-725r100,0r0,725","w":260},"J":{"d":"148,-57v104,0,128,-92,128,-193r0,-475r100,0r0,454v0,86,-2,170,-56,230v-61,67,-205,73,-310,35r0,-83v44,15,93,32,138,32","w":456},"K":{"d":"592,0r-100,0r-273,-326r-39,44r0,282r-100,0r0,-725r100,0r0,324r291,-324r106,0r-306,341","w":615},"L":{"d":"538,0r-458,0r0,-725r100,0r0,650r358,0r0,75","w":548},"M":{"d":"752,0r-100,0r0,-613r-190,562r-100,0r-199,-561r0,612r-83,0r0,-725r143,0r197,554r187,-554r145,0r0,725","w":831},"N":{"d":"163,0r-83,0r0,-725r100,0r367,591r0,-591r83,0r0,725r-100,0r-367,-591r0,591"},"O":{"d":"623,-363v0,-89,-12,-183,-76,-245v-85,-82,-241,-82,-326,0v-64,62,-76,156,-76,245v0,90,12,184,76,246v85,82,241,82,326,0v64,-62,76,-156,76,-246xm384,-743v209,0,349,145,349,380v0,239,-142,381,-349,381v-211,0,-349,-146,-349,-381v0,-235,140,-380,349,-380","w":767},"P":{"d":"532,-671v103,81,94,235,-4,321v-92,81,-208,58,-348,61r0,289r-100,0r0,-725v170,8,343,-32,452,54xm180,-364v110,-6,209,24,277,-41v61,-59,66,-158,2,-211v-66,-55,-174,-29,-279,-34r0,286","w":632},"Q":{"d":"533,-105v71,-56,90,-154,90,-258v0,-89,-12,-183,-76,-245v-85,-82,-241,-82,-326,0v-64,62,-76,156,-76,245v0,90,12,184,76,246v61,59,155,75,247,47v-35,-62,-79,-97,-132,-111r19,-73v90,25,155,97,178,149xm384,-743v209,0,349,145,349,380v0,149,-58,273,-165,335v41,72,97,108,160,108r0,75v-109,0,-196,-81,-228,-154v-263,70,-465,-87,-465,-364v0,-235,140,-380,349,-380","w":767},"R":{"d":"568,-513v0,43,-10,180,-183,214r241,299r-116,0r-234,-289r-96,0r0,289r-100,0r0,-725v161,7,317,-27,420,55v50,40,68,99,68,157xm180,-364v95,-2,181,14,242,-39v62,-54,66,-157,5,-212v-59,-54,-151,-31,-247,-35r0,286","w":629},"S":{"d":"562,-199v0,233,-330,268,-522,157r0,-93v81,45,169,78,255,78v85,0,167,-33,167,-118v0,-70,-55,-110,-165,-145r-45,-15v-166,-55,-212,-103,-212,-191v0,-224,286,-259,472,-174r0,85v-68,-27,-138,-53,-212,-53v-77,0,-160,28,-160,114v0,66,49,84,167,123r46,14v152,50,209,123,209,218","w":602},"T":{"d":"578,-650r-234,0r0,650r-100,0r0,-650r-234,0r0,-75r568,0r0,75","w":587},"U":{"d":"630,-277v0,86,1,173,-71,232v-105,87,-303,87,-408,1v-73,-59,-71,-147,-71,-233r0,-448r100,0r0,466v0,58,-1,118,46,159v66,59,193,59,259,0v46,-41,45,-101,45,-159r0,-466r100,0r0,448"},"V":{"d":"336,-114r219,-611r83,0r-260,725r-100,0r-268,-725r100,0","w":648},"W":{"d":"926,-725r-173,725r-124,0r-163,-573r-149,573r-126,0r-181,-725r100,0r153,613r159,-613r100,0r175,612r146,-612r83,0","w":936},"X":{"d":"645,0r-114,0r-211,-293r-218,293r-101,0r270,-361r-263,-364r114,0r206,286r213,-286r100,0r-263,354","w":648},"Y":{"d":"373,0r-100,0r0,-290r-263,-435r100,0r221,365r214,-365r83,0r-255,435r0,290","w":638},"Z":{"d":"574,0r-534,0r0,-93r432,-557r-416,0r0,-75r518,0r0,93r-432,557r432,0r0,75","w":613},"[":{"d":"258,129r-218,0r0,-888r218,0r0,72r-123,0r0,744r123,0r0,72","w":268},"\\":{"d":"279,129r-81,0r-199,-888r81,0","w":278},"]":{"d":"228,-759r0,888r-218,0r0,-72r123,0r0,-744r-123,0r0,-72r218,0","w":268},"^":{"d":"501,-362r-89,0r-155,-281r-155,281r-89,0r200,-361r88,0","w":515},"_":{"d":"500,71r-500,0r0,-71r500,0r0,71","w":500},"`":{"d":"170,-593r-59,1r-72,-131r0,-47r95,-1v-4,75,24,119,36,178","w":222},"a":{"d":"42,-134v0,-149,172,-177,320,-175v-2,-91,15,-162,-110,-162v-58,0,-118,15,-175,39r0,-73v60,-26,124,-37,188,-37v191,0,192,105,192,209r0,333r-95,0r0,-70v-48,48,-107,82,-174,82v-89,0,-146,-61,-146,-146xm362,-252v-102,-4,-225,15,-225,113v0,48,33,80,85,80v54,0,100,-34,140,-77r0,-116","w":522},"b":{"d":"505,-303v0,146,-56,315,-278,315v-41,0,-100,-5,-152,-29r0,-753r95,0r0,315v38,-52,95,-87,163,-87v77,0,172,44,172,239xm231,-59v135,0,169,-112,169,-231v0,-139,-44,-181,-101,-181v-58,0,-106,42,-129,98r0,307v20,5,40,7,61,7","w":542},"c":{"d":"137,-265v0,126,50,206,162,206v50,0,105,-16,159,-32r0,77v-54,16,-110,26,-159,26v-159,0,-257,-97,-257,-277v0,-179,97,-277,258,-277v48,0,104,8,158,22r0,75v-54,-13,-110,-26,-157,-26v-114,0,-164,79,-164,206","w":499},"d":{"d":"37,-249v0,-234,150,-293,278,-293v16,0,36,1,57,4r0,-232r95,0r0,770r-95,0r0,-65v-35,46,-86,77,-146,77v-89,0,-189,-67,-189,-261xm372,-464v-139,-27,-229,28,-230,208v0,139,53,197,117,197v53,0,95,-40,113,-92r0,-313","w":542},"e":{"d":"147,-325r248,0v-8,-97,-54,-146,-117,-146v-60,0,-115,44,-131,146xm309,12v-170,0,-272,-88,-272,-281v0,-207,131,-273,236,-273v117,0,235,94,218,288r-349,0v-2,233,170,211,338,169r0,71v-58,17,-117,26,-171,26","w":534},"f":{"d":"95,-530v2,-165,33,-252,170,-252v34,0,60,6,85,14r0,73v-22,-7,-47,-16,-74,-16v-85,0,-86,86,-86,181r95,0r0,71r-95,0r0,459r-95,0r0,-459r-71,0r0,-71r71,0","w":340},"g":{"d":"252,-231v93,0,111,-54,111,-120v0,-69,-22,-120,-111,-120v-97,0,-110,65,-110,120v0,69,20,120,110,120xm37,-351v0,-78,53,-191,215,-191v39,0,79,7,113,24v33,-36,77,-60,126,-60r0,72v-29,0,-57,5,-81,18v112,120,62,326,-158,329v-23,0,-46,-3,-69,-9v-46,52,6,81,80,95r93,18v59,11,144,31,144,120v0,103,-132,129,-263,129v-47,0,-123,-4,-195,-23r0,-83v83,23,168,34,244,34v62,0,120,-8,120,-50v0,-41,-60,-48,-76,-51r-94,-18v-57,-11,-148,-31,-148,-114v0,-31,16,-59,39,-80v-59,-35,-90,-98,-90,-160","w":515},"h":{"d":"396,-347v0,-69,-2,-124,-74,-124v-65,0,-117,48,-152,109r0,362r-95,0r0,-770r95,0r0,324v48,-57,112,-96,188,-96v135,0,133,121,133,213r0,329r-95,0r0,-347","w":565},"i":{"d":"170,-630r-95,0r0,-95r95,0r0,95xm170,0r-95,0r0,-530r95,0r0,530","w":245},"j":{"d":"169,-630r-95,0r0,-95r95,0r0,95xm1,134v73,0,73,-69,73,-146r0,-518r95,0r0,490v0,128,0,245,-154,245v-37,0,-64,-7,-90,-16r0,-74v23,9,49,19,76,19","w":245},"k":{"d":"477,0r-96,0r-181,-227r-30,36r0,191r-95,0r0,-770r95,0r0,461r183,-221r99,0r-196,235","w":492},"l":{"d":"170,0r-95,0r0,-770r95,0r0,770","w":245},"m":{"d":"369,-346v5,-61,-14,-125,-75,-125v-56,0,-98,41,-124,94r0,377r-95,0r0,-530r95,0r0,64v40,-46,94,-76,157,-76v52,0,105,20,125,90v41,-54,98,-90,167,-90v139,0,136,131,136,214r0,328r-95,0r0,-346v0,-58,0,-125,-74,-125v-56,0,-98,41,-124,94r1,377r-94,0r0,-346","w":830},"n":{"d":"396,-347v0,-69,-2,-124,-74,-124v-65,0,-117,48,-152,109r0,362r-95,0r0,-530r95,0r0,84v48,-57,112,-96,188,-96v135,0,133,121,133,213r0,329r-95,0r0,-347","w":565},"o":{"d":"416,-265v0,-60,-5,-123,-46,-168v-47,-50,-135,-50,-182,0v-41,45,-46,108,-46,168v0,60,5,123,46,168v47,50,135,50,182,0v41,-45,46,-108,46,-168xm279,-542v145,0,242,109,242,277v0,167,-95,277,-242,277v-145,0,-242,-109,-242,-277v0,-167,95,-277,242,-277","w":559},"p":{"d":"505,-303v0,146,-56,315,-278,315v-17,0,-36,0,-57,-3r0,184r-95,0r0,-723r95,0r0,75v38,-52,95,-87,163,-87v77,0,172,44,172,239xm231,-59v135,0,169,-112,169,-231v0,-139,-44,-181,-101,-181v-58,0,-106,42,-129,98r0,307v20,5,40,7,61,7","w":542},"q":{"d":"37,-249v0,-234,150,-293,278,-293v38,0,98,5,152,29r0,706r-95,0r0,-258v-35,46,-86,77,-146,77v-89,0,-189,-67,-189,-261xm372,-464v-139,-27,-229,28,-230,208v0,139,53,197,117,197v53,0,95,-40,113,-92r0,-313","w":542},"r":{"d":"398,-450v-111,-28,-197,32,-228,122r0,328r-95,0r0,-530r95,0r0,101v45,-78,116,-128,228,-109r0,88","w":410},"s":{"d":"444,-159v0,101,-87,171,-221,171v-33,0,-102,-3,-164,-31r0,-77v62,27,130,37,174,37v72,0,116,-31,116,-80v0,-79,-101,-82,-163,-105v-69,-26,-127,-74,-127,-145v0,-92,95,-153,208,-153v41,0,92,8,142,22r0,76v-50,-14,-100,-27,-145,-27v-58,0,-111,21,-111,66v0,67,105,74,162,95v67,25,129,66,129,151","w":485},"t":{"d":"190,-173v0,63,1,114,64,114v19,0,47,-4,68,-8r0,71v-31,5,-62,8,-89,8v-134,0,-138,-77,-138,-203r0,-268r-71,0r0,-71r71,0r0,-120r95,0r0,120r132,0r0,71r-132,0r0,286","w":334},"u":{"d":"170,-185v0,62,1,126,75,126v65,0,116,-47,151,-108r0,-363r95,0r0,530r-95,0r0,-84v-48,57,-111,96,-185,96v-139,0,-136,-131,-136,-215r0,-327r95,0r0,345","w":565},"v":{"d":"259,-110r146,-420r79,0r-185,530r-95,0r-194,-530r95,0","w":495},"w":{"d":"710,-530r-132,530r-109,0r-103,-386r-108,386r-105,0r-143,-530r85,0r114,424r118,-424r85,0r114,424r105,-424r79,0","w":720},"x":{"d":"484,0r-95,0r-148,-209r-145,209r-93,0r191,-275r-180,-255r95,0r144,203r141,-203r93,0r-188,269","w":495},"y":{"d":"484,-530r-253,723r-79,0r59,-168r-201,-555r95,0r154,418r146,-418r79,0","w":495},"z":{"d":"458,0r-416,0r0,-80r312,-379r-300,0r0,-71r404,0r0,80r-312,379r312,0r0,71","w":499},"{":{"d":"113,-315v24,19,52,57,52,82r0,204v2,57,45,95,113,86r0,72v-112,10,-191,-61,-191,-158r0,-198v-14,-31,-43,-52,-77,-52r0,-72v34,0,63,-21,77,-52r0,-198v3,-96,80,-168,191,-158r0,72v-68,-8,-113,28,-113,86r0,204v0,25,-26,62,-52,82","w":287},"|":{"d":"158,129r-78,0r0,-888r78,0r0,888","w":238},"}":{"d":"175,-315v-24,-19,-52,-57,-52,-82r0,-204v-2,-57,-45,-95,-113,-86r0,-72v112,-10,191,61,191,158r0,198v14,31,43,52,77,52r0,72v-34,0,-63,21,-77,52r0,198v-3,96,-80,168,-191,158r0,-72v68,8,113,-28,113,-86r0,-204v0,-25,26,-62,52,-82","w":287},"~":{"d":"179,-384v94,0,144,107,210,107v42,0,50,-48,50,-89r95,0v0,87,-61,160,-139,160v-94,0,-144,-107,-210,-107v-42,0,-50,48,-50,89r-95,0v0,-87,61,-160,139,-160","w":575},"\u00a0":{"w":250},"\u00a8":{"d":"497,-630r-95,0r0,-95r95,0r0,95xm308,-630r-95,0r0,-95r95,0r0,95"},"\u00af":{"d":"497,-630r-284,0r0,-71r284,0r0,71"},"\u00b4":{"d":"230,-761r-114,160r-57,0r76,-160r95,0","w":270},"\u00c0":{"d":"373,-796r-57,0r-114,-160r95,0xm648,0r-100,0r-76,-202r-305,0r-74,202r-83,0r265,-725r100,0xm444,-277r-127,-336r-123,336r250,0","w":658},"\u00c1":{"d":"430,-956r-114,160r-57,0r76,-160r95,0xm648,0r-100,0r-76,-202r-305,0r-74,202r-83,0r265,-725r100,0xm444,-277r-127,-336r-123,336r250,0","w":658},"\u00c2":{"d":"473,-796r-76,0r-81,-90r-81,90r-76,0r110,-142r94,0xm648,0r-100,0r-76,-202r-305,0r-74,202r-83,0r265,-725r100,0xm444,-277r-127,-336r-123,336r250,0","w":658},"\u00c4":{"d":"458,-825r-95,0r0,-95r95,0r0,95xm269,-825r-95,0r0,-95r95,0r0,95xm648,0r-100,0r-76,-202r-305,0r-74,202r-83,0r265,-725r100,0xm444,-277r-127,-336r-123,336r250,0","w":658},"\u00c5":{"d":"373,-894v0,-32,-26,-57,-57,-57v-31,0,-57,25,-57,57v0,31,26,56,57,56v31,0,57,-25,57,-56xm430,-894v0,59,-53,104,-114,104v-61,0,-114,-45,-114,-104v0,-60,53,-104,114,-104v61,0,114,44,114,104xm648,0r-100,0r-76,-202r-305,0r-74,202r-83,0r265,-725r100,0xm444,-277r-127,-336r-123,336r250,0","w":658},"\u00c8":{"d":"376,-796r-57,0r-114,-160r95,0xm570,0r-490,0r0,-725r478,0r0,75r-378,0r0,224r305,0r0,75r-305,0r0,276r390,0r0,75","w":598},"\u00c9":{"d":"433,-956r-114,160r-57,0r76,-160r95,0xm570,0r-490,0r0,-725r478,0r0,75r-378,0r0,224r305,0r0,75r-305,0r0,276r390,0r0,75","w":598},"\u00ca":{"d":"476,-796r-76,0r-81,-90r-81,90r-76,0r110,-142r94,0xm570,0r-490,0r0,-725r478,0r0,75r-378,0r0,224r305,0r0,75r-305,0r0,276r390,0r0,75","w":598},"\u00cb":{"d":"461,-825r-95,0r0,-95r95,0r0,95xm272,-825r-95,0r0,-95r95,0r0,95xm570,0r-490,0r0,-725r478,0r0,75r-378,0r0,224r305,0r0,75r-305,0r0,276r390,0r0,75","w":598},"\u00cc":{"d":"187,-796r-57,0r-114,-160r95,0xm180,0r-100,0r0,-725r100,0r0,725","w":260},"\u00cd":{"d":"244,-956r-114,160r-57,0r76,-160r95,0xm180,0r-100,0r0,-725r100,0r0,725","w":260},"\u00ce":{"d":"287,-796r-76,0r-81,-90r-81,90r-76,0r110,-142r94,0xm180,0r-100,0r0,-725r100,0r0,725","w":260},"\u00cf":{"d":"272,-825r-95,0r0,-95r95,0r0,95xm83,-825r-95,0r0,-95r95,0r0,95xm180,0r-100,0r0,-725r100,0r0,725","w":260},"\u00d0":{"d":"480,-157v88,-103,91,-302,7,-412v-84,-110,-168,-75,-307,-81r0,250r166,0r0,75r-166,0r0,250v131,-3,213,19,300,-82xm557,-619v120,131,118,387,-6,513v-135,136,-270,100,-471,106r0,-325r-72,0r0,-75r72,0r0,-325v206,8,345,-38,477,106","w":687},"\u00d2":{"d":"441,-796r-57,0r-114,-160r95,0xm623,-363v0,-89,-12,-183,-76,-245v-85,-82,-241,-82,-326,0v-64,62,-76,156,-76,245v0,90,12,184,76,246v85,82,241,82,326,0v64,-62,76,-156,76,-246xm384,-743v209,0,349,145,349,380v0,239,-142,381,-349,381v-211,0,-349,-146,-349,-381v0,-235,140,-380,349,-380","w":767},"\u00d3":{"d":"498,-956r-114,160r-57,0r76,-160r95,0xm623,-363v0,-89,-12,-183,-76,-245v-85,-82,-241,-82,-326,0v-64,62,-76,156,-76,245v0,90,12,184,76,246v85,82,241,82,326,0v64,-62,76,-156,76,-246xm384,-743v209,0,349,145,349,380v0,239,-142,381,-349,381v-211,0,-349,-146,-349,-381v0,-235,140,-380,349,-380","w":767},"\u00d4":{"d":"541,-796r-76,0r-81,-90r-81,90r-76,0r110,-142r94,0xm623,-363v0,-89,-12,-183,-76,-245v-85,-82,-241,-82,-326,0v-64,62,-76,156,-76,245v0,90,12,184,76,246v85,82,241,82,326,0v64,-62,76,-156,76,-246xm384,-743v209,0,349,145,349,380v0,239,-142,381,-349,381v-211,0,-349,-146,-349,-381v0,-235,140,-380,349,-380","w":767},"\u00d6":{"d":"526,-825r-95,0r0,-95r95,0r0,95xm337,-825r-95,0r0,-95r95,0r0,95xm623,-363v0,-89,-12,-183,-76,-245v-85,-82,-241,-82,-326,0v-64,62,-76,156,-76,245v0,90,12,184,76,246v85,82,241,82,326,0v64,-62,76,-156,76,-246xm384,-743v209,0,349,145,349,380v0,239,-142,381,-349,381v-211,0,-349,-146,-349,-381v0,-235,140,-380,349,-380","w":767},"\u00d9":{"d":"412,-796r-57,0r-114,-160r95,0xm630,-277v0,86,1,173,-71,232v-105,87,-303,87,-408,1v-73,-59,-71,-147,-71,-233r0,-448r100,0r0,466v0,58,-1,118,46,159v66,59,193,59,259,0v46,-41,45,-101,45,-159r0,-466r100,0r0,448"},"\u00da":{"d":"469,-956r-114,160r-57,0r76,-160r95,0xm630,-277v0,86,1,173,-71,232v-105,87,-303,87,-408,1v-73,-59,-71,-147,-71,-233r0,-448r100,0r0,466v0,58,-1,118,46,159v66,59,193,59,259,0v46,-41,45,-101,45,-159r0,-466r100,0r0,448"},"\u00db":{"d":"512,-796r-76,0r-81,-90r-81,90r-76,0r110,-142r94,0xm630,-277v0,86,1,173,-71,232v-105,87,-303,87,-408,1v-73,-59,-71,-147,-71,-233r0,-448r100,0r0,466v0,58,-1,118,46,159v66,59,193,59,259,0v46,-41,45,-101,45,-159r0,-466r100,0r0,448"},"\u00dc":{"d":"497,-825r-95,0r0,-95r95,0r0,95xm308,-825r-95,0r0,-95r95,0r0,95xm630,-277v0,86,1,173,-71,232v-105,87,-303,87,-408,1v-73,-59,-71,-147,-71,-233r0,-448r100,0r0,466v0,58,-1,118,46,159v66,59,193,59,259,0v46,-41,45,-101,45,-159r0,-466r100,0r0,448"},"\u00dd":{"d":"433,-956r-114,160r-57,0r76,-160r95,0xm373,0r-100,0r0,-290r-263,-435r100,0r221,365r214,-365r83,0r-255,435r0,290","w":638},"\u00de":{"d":"180,0r-100,0r0,-725r100,0r0,138v137,3,263,-18,352,54v102,83,94,234,-4,321v-92,81,-208,58,-348,61r0,151xm180,-512r0,286r161,0v124,0,161,-88,161,-153v0,-66,-39,-133,-161,-133r-161,0","w":632},"\u00df":{"d":"497,-628v0,116,-144,172,-144,240v1,44,68,68,108,88v63,30,115,64,115,143v0,96,-77,169,-198,169v-29,0,-89,-2,-141,-29r0,-81v53,27,111,39,149,39v62,0,95,-35,95,-71v0,-58,-79,-80,-127,-103v-57,-28,-96,-82,-96,-142v0,-122,144,-164,144,-251v0,-85,-139,-110,-198,-55v-33,30,-34,71,-34,113r0,568r-95,0r0,-550v0,-69,1,-137,58,-184v111,-93,364,-43,364,106","w":617},"\u00e0":{"d":"317,-601r-57,0r-114,-160r95,0xm42,-134v0,-149,172,-177,320,-175v-2,-91,15,-162,-110,-162v-58,0,-118,15,-175,39r0,-73v60,-26,124,-37,188,-37v191,0,192,105,192,209r0,333r-95,0r0,-70v-48,48,-107,82,-174,82v-89,0,-146,-61,-146,-146xm362,-252v-102,-4,-225,15,-225,113v0,48,33,80,85,80v54,0,100,-34,140,-77r0,-116","w":522},"\u00e1":{"d":"374,-761r-114,160r-57,0r76,-160r95,0xm42,-134v0,-149,172,-177,320,-175v-2,-91,15,-162,-110,-162v-58,0,-118,15,-175,39r0,-73v60,-26,124,-37,188,-37v191,0,192,105,192,209r0,333r-95,0r0,-70v-48,48,-107,82,-174,82v-89,0,-146,-61,-146,-146xm362,-252v-102,-4,-225,15,-225,113v0,48,33,80,85,80v54,0,100,-34,140,-77r0,-116","w":522},"\u00e2":{"d":"417,-601r-76,0r-81,-90r-81,90r-76,0r110,-142r94,0xm42,-134v0,-149,172,-177,320,-175v-2,-91,15,-162,-110,-162v-58,0,-118,15,-175,39r0,-73v60,-26,124,-37,188,-37v191,0,192,105,192,209r0,333r-95,0r0,-70v-48,48,-107,82,-174,82v-89,0,-146,-61,-146,-146xm362,-252v-102,-4,-225,15,-225,113v0,48,33,80,85,80v54,0,100,-34,140,-77r0,-116","w":522},"\u00e4":{"d":"402,-630r-95,0r0,-95r95,0r0,95xm213,-630r-95,0r0,-95r95,0r0,95xm42,-134v0,-149,172,-177,320,-175v-2,-91,15,-162,-110,-162v-58,0,-118,15,-175,39r0,-73v60,-26,124,-37,188,-37v191,0,192,105,192,209r0,333r-95,0r0,-70v-48,48,-107,82,-174,82v-89,0,-146,-61,-146,-146xm362,-252v-102,-4,-225,15,-225,113v0,48,33,80,85,80v54,0,100,-34,140,-77r0,-116","w":522},"\u00e5":{"d":"317,-699v0,-32,-26,-57,-57,-57v-31,0,-57,25,-57,57v0,31,26,56,57,56v31,0,57,-25,57,-56xm374,-699v0,59,-53,104,-114,104v-61,0,-114,-45,-114,-104v0,-60,53,-104,114,-104v61,0,114,44,114,104xm42,-134v0,-149,172,-177,320,-175v-2,-91,15,-162,-110,-162v-58,0,-118,15,-175,39r0,-73v60,-26,124,-37,188,-37v191,0,192,105,192,209r0,333r-95,0r0,-70v-48,48,-107,82,-174,82v-89,0,-146,-61,-146,-146xm362,-252v-102,-4,-225,15,-225,113v0,48,33,80,85,80v54,0,100,-34,140,-77r0,-116","w":522},"\u00e8":{"d":"342,-601r-57,0r-114,-160r95,0xm147,-325r248,0v-8,-97,-54,-146,-117,-146v-60,0,-115,44,-131,146xm309,12v-170,0,-272,-88,-272,-281v0,-207,131,-273,236,-273v117,0,235,94,218,288r-349,0v-2,233,170,211,338,169r0,71v-58,17,-117,26,-171,26","w":534},"\u00e9":{"d":"399,-761r-114,160r-57,0r76,-160r95,0xm147,-325r248,0v-8,-97,-54,-146,-117,-146v-60,0,-115,44,-131,146xm309,12v-170,0,-272,-88,-272,-281v0,-207,131,-273,236,-273v117,0,235,94,218,288r-349,0v-2,233,170,211,338,169r0,71v-58,17,-117,26,-171,26","w":534},"\u00ea":{"d":"442,-601r-76,0r-81,-90r-81,90r-76,0r110,-142r94,0xm147,-325r248,0v-8,-97,-54,-146,-117,-146v-60,0,-115,44,-131,146xm309,12v-170,0,-272,-88,-272,-281v0,-207,131,-273,236,-273v117,0,235,94,218,288r-349,0v-2,233,170,211,338,169r0,71v-58,17,-117,26,-171,26","w":534},"\u00eb":{"d":"427,-630r-95,0r0,-95r95,0r0,95xm238,-630r-95,0r0,-95r95,0r0,95xm147,-325r248,0v-8,-97,-54,-146,-117,-146v-60,0,-115,44,-131,146xm309,12v-170,0,-272,-88,-272,-281v0,-207,131,-273,236,-273v117,0,235,94,218,288r-349,0v-2,233,170,211,338,169r0,71v-58,17,-117,26,-171,26","w":534},"\u00ec":{"d":"180,-601r-57,0r-114,-160r95,0xm170,0r-95,0r0,-530r95,0r0,530","w":245},"\u00ed":{"d":"236,-761r-114,160r-57,0r76,-160r95,0xm170,0r-95,0r0,-530r95,0r0,530","w":245},"\u00ee":{"d":"279,-601r-76,0r-81,-90r-81,90r-76,0r110,-142r94,0xm170,0r-95,0r0,-530r95,0r0,530","w":245},"\u00ef":{"d":"264,-630r-95,0r0,-95r95,0r0,95xm75,-630r-95,0r0,-95r95,0r0,95xm170,0r-95,0r0,-530r95,0r0,530","w":245},"\u00f0":{"d":"516,-263v0,213,-124,275,-237,275v-113,0,-237,-62,-237,-274v0,-215,126,-273,230,-273v30,0,56,5,79,16v-22,-37,-49,-71,-80,-101r-128,46r-15,-42r104,-38v-36,-28,-75,-51,-119,-68r66,-39v49,20,94,46,134,78r129,-47r16,42r-107,39v103,99,165,237,165,386xm421,-265v0,-161,-58,-213,-136,-213v-85,0,-148,62,-148,210v0,150,65,209,142,209v77,0,142,-59,142,-206","w":559},"\u00f2":{"d":"336,-601r-57,0r-114,-160r95,0xm416,-265v0,-60,-5,-123,-46,-168v-47,-50,-135,-50,-182,0v-41,45,-46,108,-46,168v0,60,5,123,46,168v47,50,135,50,182,0v41,-45,46,-108,46,-168xm279,-542v145,0,242,109,242,277v0,167,-95,277,-242,277v-145,0,-242,-109,-242,-277v0,-167,95,-277,242,-277","w":559},"\u00f3":{"d":"393,-761r-114,160r-57,0r76,-160r95,0xm416,-265v0,-60,-5,-123,-46,-168v-47,-50,-135,-50,-182,0v-41,45,-46,108,-46,168v0,60,5,123,46,168v47,50,135,50,182,0v41,-45,46,-108,46,-168xm279,-542v145,0,242,109,242,277v0,167,-95,277,-242,277v-145,0,-242,-109,-242,-277v0,-167,95,-277,242,-277","w":559},"\u00f4":{"d":"436,-601r-76,0r-81,-90r-81,90r-76,0r110,-142r94,0xm416,-265v0,-60,-5,-123,-46,-168v-47,-50,-135,-50,-182,0v-41,45,-46,108,-46,168v0,60,5,123,46,168v47,50,135,50,182,0v41,-45,46,-108,46,-168xm279,-542v145,0,242,109,242,277v0,167,-95,277,-242,277v-145,0,-242,-109,-242,-277v0,-167,95,-277,242,-277","w":559},"\u00f6":{"d":"421,-630r-95,0r0,-95r95,0r0,95xm232,-630r-95,0r0,-95r95,0r0,95xm416,-265v0,-60,-5,-123,-46,-168v-47,-50,-135,-50,-182,0v-41,45,-46,108,-46,168v0,60,5,123,46,168v47,50,135,50,182,0v41,-45,46,-108,46,-168xm279,-542v145,0,242,109,242,277v0,167,-95,277,-242,277v-145,0,-242,-109,-242,-277v0,-167,95,-277,242,-277","w":559},"\u00f9":{"d":"340,-601r-57,0r-114,-160r95,0xm170,-185v0,62,1,126,75,126v65,0,116,-47,151,-108r0,-363r95,0r0,530r-95,0r0,-84v-48,57,-111,96,-185,96v-139,0,-136,-131,-136,-215r0,-327r95,0r0,345","w":565},"\u00fa":{"d":"397,-761r-114,160r-57,0r76,-160r95,0xm170,-185v0,62,1,126,75,126v65,0,116,-47,151,-108r0,-363r95,0r0,530r-95,0r0,-84v-48,57,-111,96,-185,96v-139,0,-136,-131,-136,-215r0,-327r95,0r0,345","w":565},"\u00fb":{"d":"440,-601r-76,0r-81,-90r-81,90r-76,0r110,-142r94,0xm170,-185v0,62,1,126,75,126v65,0,116,-47,151,-108r0,-363r95,0r0,530r-95,0r0,-84v-48,57,-111,96,-185,96v-139,0,-136,-131,-136,-215r0,-327r95,0r0,345","w":565},"\u00fc":{"d":"425,-630r-95,0r0,-95r95,0r0,95xm236,-630r-95,0r0,-95r95,0r0,95xm170,-185v0,62,1,126,75,126v65,0,116,-47,151,-108r0,-363r95,0r0,530r-95,0r0,-84v-48,57,-111,96,-185,96v-139,0,-136,-131,-136,-215r0,-327r95,0r0,345","w":565},"\u00fd":{"d":"361,-761r-114,160r-57,0r76,-160r95,0xm484,-530r-253,723r-79,0r59,-168r-201,-555r95,0r154,418r146,-418r79,0","w":495},"\u00fe":{"d":"505,-303v0,146,-56,315,-278,315v-17,0,-36,0,-57,-3r0,184r-95,0r0,-963r95,0r0,315v38,-52,95,-87,163,-87v77,0,172,44,172,239xm231,-59v135,0,169,-112,169,-231v0,-139,-44,-181,-101,-181v-58,0,-106,42,-129,98r0,307v20,5,40,7,61,7","w":542},"\u00ff":{"d":"389,-630r-95,0r0,-95r95,0r0,95xm200,-630r-95,0r0,-95r95,0r0,95xm484,-530r-253,723r-79,0r59,-168r-201,-555r95,0r154,418r146,-418r79,0","w":495},"\u0100":{"d":"458,-825r-284,0r0,-71r284,0r0,71xm648,0r-100,0r-76,-202r-305,0r-74,202r-83,0r265,-725r100,0xm444,-277r-127,-336r-123,336r250,0","w":658},"\u0101":{"d":"402,-630r-284,0r0,-71r284,0r0,71xm42,-134v0,-149,172,-177,320,-175v-2,-91,15,-162,-110,-162v-58,0,-118,15,-175,39r0,-73v60,-26,124,-37,188,-37v191,0,192,105,192,209r0,333r-95,0r0,-70v-48,48,-107,82,-174,82v-89,0,-146,-61,-146,-146xm362,-252v-102,-4,-225,15,-225,113v0,48,33,80,85,80v54,0,100,-34,140,-77r0,-116","w":522},"\u0102":{"d":"455,-903v0,64,-68,100,-139,100v-71,0,-139,-36,-139,-100r76,0v0,28,31,43,63,43v32,0,63,-15,63,-43r76,0xm648,0r-100,0r-76,-202r-305,0r-74,202r-83,0r265,-725r100,0xm444,-277r-127,-336r-123,336r250,0","w":658},"\u0103":{"d":"399,-708v0,64,-68,100,-139,100v-71,0,-139,-36,-139,-100r76,0v0,28,31,43,63,43v32,0,63,-15,63,-43r76,0xm42,-134v0,-149,172,-177,320,-175v-2,-91,15,-162,-110,-162v-58,0,-118,15,-175,39r0,-73v60,-26,124,-37,188,-37v191,0,192,105,192,209r0,333r-95,0r0,-70v-48,48,-107,82,-174,82v-89,0,-146,-61,-146,-146xm362,-252v-102,-4,-225,15,-225,113v0,48,33,80,85,80v54,0,100,-34,140,-77r0,-116","w":522},"\u0106":{"d":"479,-956r-114,160r-57,0r76,-160r95,0xm35,-362v0,-238,129,-381,337,-381v70,0,146,16,218,43r0,85v-126,-52,-281,-90,-375,8v-60,62,-70,156,-70,245v0,88,10,182,70,244v104,106,263,53,375,-17r0,93v-69,39,-146,60,-222,60v-202,0,-333,-143,-333,-380","w":630},"\u0107":{"d":"406,-761r-114,160r-57,0r76,-160r95,0xm137,-265v0,126,50,206,162,206v50,0,105,-16,159,-32r0,77v-54,16,-110,26,-159,26v-159,0,-257,-97,-257,-277v0,-179,97,-277,258,-277v48,0,104,8,158,22r0,75v-54,-13,-110,-26,-157,-26v-114,0,-164,79,-164,206","w":499},"\u0108":{"d":"522,-796r-76,0r-81,-90r-81,90r-76,0r110,-142r94,0xm35,-362v0,-238,129,-381,337,-381v70,0,146,16,218,43r0,85v-126,-52,-281,-90,-375,8v-60,62,-70,156,-70,245v0,88,10,182,70,244v104,106,263,53,375,-17r0,93v-69,39,-146,60,-222,60v-202,0,-333,-143,-333,-380","w":630},"\u0109":{"d":"449,-601r-76,0r-81,-90r-81,90r-76,0r110,-142r94,0xm137,-265v0,126,50,206,162,206v50,0,105,-16,159,-32r0,77v-54,16,-110,26,-159,26v-159,0,-257,-97,-257,-277v0,-179,97,-277,258,-277v48,0,104,8,158,22r0,75v-54,-13,-110,-26,-157,-26v-114,0,-164,79,-164,206","w":499},"\u010a":{"d":"412,-825r-94,0r0,-95r94,0r0,95xm35,-362v0,-238,129,-381,337,-381v70,0,146,16,218,43r0,85v-126,-52,-281,-90,-375,8v-60,62,-70,156,-70,245v0,88,10,182,70,244v104,106,263,53,375,-17r0,93v-69,39,-146,60,-222,60v-202,0,-333,-143,-333,-380","w":630},"\u010b":{"d":"339,-630r-94,0r0,-95r94,0r0,95xm137,-265v0,126,50,206,162,206v50,0,105,-16,159,-32r0,77v-54,16,-110,26,-159,26v-159,0,-257,-97,-257,-277v0,-179,97,-277,258,-277v48,0,104,8,158,22r0,75v-54,-13,-110,-26,-157,-26v-114,0,-164,79,-164,206","w":499},"\u010c":{"d":"35,-362v0,-238,129,-381,337,-381v70,0,146,16,218,43r0,85v-126,-52,-281,-90,-375,8v-60,62,-70,156,-70,245v0,88,10,182,70,244v104,106,263,53,375,-17r0,93v-69,39,-146,60,-222,60v-202,0,-333,-143,-333,-380xm365,-848r81,-90r76,0r-110,142r-94,0r-110,-142r76,0","w":630},"\u010d":{"d":"137,-265v0,126,50,206,162,206v50,0,105,-16,159,-32r0,77v-54,16,-110,26,-159,26v-159,0,-257,-97,-257,-277v0,-179,97,-277,258,-277v48,0,104,8,158,22r0,75v-54,-13,-110,-26,-157,-26v-114,0,-164,79,-164,206xm292,-653r81,-90r76,0r-110,142r-94,0r-110,-142r76,0","w":499},"\u010e":{"d":"480,-157v88,-103,91,-302,7,-412v-84,-110,-168,-75,-307,-81r0,575v131,-3,213,19,300,-82xm557,-619v120,131,118,387,-6,513v-135,136,-270,100,-471,106r0,-725v206,8,345,-38,477,106xm344,-848r81,-90r76,0r-110,142r-94,0r-110,-142r76,0","w":687},"\u010f":{"d":"37,-249v0,-234,150,-293,278,-293v16,0,36,1,57,4r0,-232r95,0r0,770r-95,0r0,-65v-35,46,-86,77,-146,77v-89,0,-189,-67,-189,-261xm271,-893r81,-90r76,0r-110,142r-94,0r-110,-142r76,0xm372,-464v-139,-27,-229,28,-230,208v0,139,53,197,117,197v53,0,95,-40,113,-92r0,-313","w":542},"\u0112":{"d":"461,-825r-284,0r0,-71r284,0r0,71xm570,0r-490,0r0,-725r478,0r0,75r-378,0r0,224r305,0r0,75r-305,0r0,276r390,0r0,75","w":598},"\u0113":{"d":"427,-630r-284,0r0,-71r284,0r0,71xm147,-325r248,0v-8,-97,-54,-146,-117,-146v-60,0,-115,44,-131,146xm309,12v-170,0,-272,-88,-272,-281v0,-207,131,-273,236,-273v117,0,235,94,218,288r-349,0v-2,233,170,211,338,169r0,71v-58,17,-117,26,-171,26","w":534},"\u0114":{"d":"458,-903v0,64,-68,100,-139,100v-71,0,-139,-36,-139,-100r76,0v0,28,31,43,63,43v32,0,63,-15,63,-43r76,0xm570,0r-490,0r0,-725r478,0r0,75r-378,0r0,224r305,0r0,75r-305,0r0,276r390,0r0,75","w":598},"\u0115":{"d":"424,-708v0,64,-68,100,-139,100v-71,0,-139,-36,-139,-100r76,0v0,28,31,43,63,43v32,0,63,-15,63,-43r76,0xm147,-325r248,0v-8,-97,-54,-146,-117,-146v-60,0,-115,44,-131,146xm309,12v-170,0,-272,-88,-272,-281v0,-207,131,-273,236,-273v117,0,235,94,218,288r-349,0v-2,233,170,211,338,169r0,71v-58,17,-117,26,-171,26","w":534},"\u0116":{"d":"366,-825r-94,0r0,-95r94,0r0,95xm570,0r-490,0r0,-725r478,0r0,75r-378,0r0,224r305,0r0,75r-305,0r0,276r390,0r0,75","w":598},"\u0117":{"d":"331,-630r-94,0r0,-95r94,0r0,95xm147,-325r248,0v-8,-97,-54,-146,-117,-146v-60,0,-115,44,-131,146xm309,12v-170,0,-272,-88,-272,-281v0,-207,131,-273,236,-273v117,0,235,94,218,288r-349,0v-2,233,170,211,338,169r0,71v-58,17,-117,26,-171,26","w":534},"\u011a":{"d":"570,0r-490,0r0,-725r478,0r0,75r-378,0r0,224r305,0r0,75r-305,0r0,276r390,0r0,75xm319,-848r81,-90r76,0r-110,142r-94,0r-110,-142r76,0","w":598},"\u011b":{"d":"285,-653r81,-90r76,0r-110,142r-94,0r-110,-142r76,0xm147,-325r248,0v-8,-97,-54,-146,-117,-146v-60,0,-115,44,-131,146xm309,12v-170,0,-272,-88,-272,-281v0,-207,131,-273,236,-273v117,0,235,94,218,288r-349,0v-2,233,170,211,338,169r0,71v-58,17,-117,26,-171,26","w":534},"\u011c":{"d":"537,-796r-76,0r-81,-90r-81,90r-76,0r110,-142r94,0xm35,-362v0,-240,139,-381,352,-381v75,0,155,17,231,44r0,83v-134,-50,-297,-89,-398,9v-63,62,-75,155,-75,245v0,89,12,182,75,244v73,72,188,73,298,39r0,-191r-93,0r0,-75r193,0r0,316v-77,26,-156,47,-235,47v-209,0,-348,-144,-348,-380","w":657},"\u011d":{"d":"414,-601r-76,0r-81,-90r-81,90r-76,0r110,-142r94,0xm252,-231v93,0,111,-54,111,-120v0,-69,-22,-120,-111,-120v-97,0,-110,65,-110,120v0,69,20,120,110,120xm37,-351v0,-78,53,-191,215,-191v39,0,79,7,113,24v33,-36,77,-60,126,-60r0,72v-29,0,-57,5,-81,18v112,120,62,326,-158,329v-23,0,-46,-3,-69,-9v-46,52,6,81,80,95r93,18v59,11,144,31,144,120v0,103,-132,129,-263,129v-47,0,-123,-4,-195,-23r0,-83v83,23,168,34,244,34v62,0,120,-8,120,-50v0,-41,-60,-48,-76,-51r-94,-18v-57,-11,-148,-31,-148,-114v0,-31,16,-59,39,-80v-59,-35,-90,-98,-90,-160","w":515},"\u0120":{"d":"427,-825r-94,0r0,-95r94,0r0,95xm35,-362v0,-240,139,-381,352,-381v75,0,155,17,231,44r0,83v-134,-50,-297,-89,-398,9v-63,62,-75,155,-75,245v0,89,12,182,75,244v73,72,188,73,298,39r0,-191r-93,0r0,-75r193,0r0,316v-77,26,-156,47,-235,47v-209,0,-348,-144,-348,-380","w":657},"\u0121":{"d":"304,-630r-94,0r0,-95r94,0r0,95xm252,-231v93,0,111,-54,111,-120v0,-69,-22,-120,-111,-120v-97,0,-110,65,-110,120v0,69,20,120,110,120xm37,-351v0,-78,53,-191,215,-191v39,0,79,7,113,24v33,-36,77,-60,126,-60r0,72v-29,0,-57,5,-81,18v112,120,62,326,-158,329v-23,0,-46,-3,-69,-9v-46,52,6,81,80,95r93,18v59,11,144,31,144,120v0,103,-132,129,-263,129v-47,0,-123,-4,-195,-23r0,-83v83,23,168,34,244,34v62,0,120,-8,120,-50v0,-41,-60,-48,-76,-51r-94,-18v-57,-11,-148,-31,-148,-114v0,-31,16,-59,39,-80v-59,-35,-90,-98,-90,-160","w":515},"\u0124":{"d":"512,-796r-76,0r-81,-90r-81,90r-76,0r110,-142r94,0xm630,0r-100,0r0,-325r-350,0r0,325r-100,0r0,-725r100,0r0,325r350,0r0,-325r100,0r0,725"},"\u0125":{"d":"440,-841r-76,0r-81,-90r-81,90r-76,0r110,-142r94,0xm396,-347v0,-69,-2,-124,-74,-124v-65,0,-117,48,-152,109r0,362r-95,0r0,-770r95,0r0,324v48,-57,112,-96,188,-96v135,0,133,121,133,213r0,329r-95,0r0,-347","w":565},"\u012a":{"d":"272,-825r-284,0r0,-71r284,0r0,71xm180,0r-100,0r0,-725r100,0r0,725","w":260},"\u012b":{"d":"264,-630r-284,0r0,-71r284,0r0,71xm170,0r-95,0r0,-530r95,0r0,530","w":245},"\u012c":{"d":"269,-903v0,64,-68,100,-139,100v-71,0,-139,-36,-139,-100r76,0v0,28,31,43,63,43v32,0,63,-15,63,-43r76,0xm180,0r-100,0r0,-725r100,0r0,725","w":260},"\u012d":{"d":"261,-708v0,64,-68,100,-139,100v-71,0,-139,-36,-139,-100r76,0v0,28,31,43,63,43v32,0,63,-15,63,-43r76,0xm170,0r-95,0r0,-530r95,0r0,530","w":245},"\u0130":{"d":"177,-825r-94,0r0,-95r94,0r0,95xm180,0r-100,0r0,-725r100,0r0,725","w":260},"\u0131":{"d":"170,0r-95,0r0,-530r95,0r0,530","w":245},"\u0134":{"d":"385,-796r-76,0r-81,-90r-81,90r-76,0r110,-142r94,0xm148,-57v104,0,128,-92,128,-193r0,-475r100,0r0,454v0,86,-2,170,-56,230v-61,67,-205,73,-310,35r0,-83v44,15,93,32,138,32","w":456},"\u0135":{"d":"279,-601r-76,0r-81,-90r-81,90r-76,0r110,-142r94,0xm1,134v73,0,73,-69,73,-146r0,-518r95,0r0,490v0,128,0,245,-154,245v-37,0,-64,-7,-90,-16r0,-74v23,9,49,19,76,19","w":245},"\u0139":{"d":"388,-956r-114,160r-57,0r76,-160r95,0xm538,0r-458,0r0,-725r100,0r0,650r358,0r0,75","w":548},"\u013a":{"d":"236,-1001r-114,160r-57,0r76,-160r95,0xm170,0r-95,0r0,-770r95,0r0,770","w":245},"\u013d":{"d":"538,0r-458,0r0,-725r100,0r0,650r358,0r0,75xm274,-848r81,-90r76,0r-110,142r-94,0r-110,-142r76,0","w":548},"\u013e":{"d":"170,0r-95,0r0,-770r95,0r0,770xm122,-893r81,-90r76,0r-110,142r-94,0r-110,-142r76,0","w":245},"\u0143":{"d":"469,-956r-114,160r-57,0r76,-160r95,0xm163,0r-83,0r0,-725r100,0r367,591r0,-591r83,0r0,725r-100,0r-367,-591r0,591"},"\u0144":{"d":"397,-761r-114,160r-57,0r76,-160r95,0xm396,-347v0,-69,-2,-124,-74,-124v-65,0,-117,48,-152,109r0,362r-95,0r0,-530r95,0r0,84v48,-57,112,-96,188,-96v135,0,133,121,133,213r0,329r-95,0r0,-347","w":565},"\u0147":{"d":"163,0r-83,0r0,-725r100,0r367,591r0,-591r83,0r0,725r-100,0r-367,-591r0,591xm355,-848r81,-90r76,0r-110,142r-94,0r-110,-142r76,0"},"\u0148":{"d":"396,-347v0,-69,-2,-124,-74,-124v-65,0,-117,48,-152,109r0,362r-95,0r0,-530r95,0r0,84v48,-57,112,-96,188,-96v135,0,133,121,133,213r0,329r-95,0r0,-347xm283,-653r81,-90r76,0r-110,142r-94,0r-110,-142r76,0","w":565},"\u014c":{"d":"526,-825r-284,0r0,-71r284,0r0,71xm623,-363v0,-89,-12,-183,-76,-245v-85,-82,-241,-82,-326,0v-64,62,-76,156,-76,245v0,90,12,184,76,246v85,82,241,82,326,0v64,-62,76,-156,76,-246xm384,-743v209,0,349,145,349,380v0,239,-142,381,-349,381v-211,0,-349,-146,-349,-381v0,-235,140,-380,349,-380","w":767},"\u014d":{"d":"421,-630r-284,0r0,-71r284,0r0,71xm416,-265v0,-60,-5,-123,-46,-168v-47,-50,-135,-50,-182,0v-41,45,-46,108,-46,168v0,60,5,123,46,168v47,50,135,50,182,0v41,-45,46,-108,46,-168xm279,-542v145,0,242,109,242,277v0,167,-95,277,-242,277v-145,0,-242,-109,-242,-277v0,-167,95,-277,242,-277","w":559},"\u014e":{"d":"523,-903v0,64,-68,100,-139,100v-71,0,-139,-36,-139,-100r76,0v0,28,31,43,63,43v32,0,63,-15,63,-43r76,0xm623,-363v0,-89,-12,-183,-76,-245v-85,-82,-241,-82,-326,0v-64,62,-76,156,-76,245v0,90,12,184,76,246v85,82,241,82,326,0v64,-62,76,-156,76,-246xm384,-743v209,0,349,145,349,380v0,239,-142,381,-349,381v-211,0,-349,-146,-349,-381v0,-235,140,-380,349,-380","w":767},"\u014f":{"d":"418,-708v0,64,-68,100,-139,100v-71,0,-139,-36,-139,-100r76,0v0,28,31,43,63,43v32,0,63,-15,63,-43r76,0xm416,-265v0,-60,-5,-123,-46,-168v-47,-50,-135,-50,-182,0v-41,45,-46,108,-46,168v0,60,5,123,46,168v47,50,135,50,182,0v41,-45,46,-108,46,-168xm279,-542v145,0,242,109,242,277v0,167,-95,277,-242,277v-145,0,-242,-109,-242,-277v0,-167,95,-277,242,-277","w":559},"\u0150":{"d":"408,-956r-114,160r-57,0r76,-160r95,0xm574,-956r-114,160r-57,0r76,-160r95,0xm623,-363v0,-89,-12,-183,-76,-245v-85,-82,-241,-82,-326,0v-64,62,-76,156,-76,245v0,90,12,184,76,246v85,82,241,82,326,0v64,-62,76,-156,76,-246xm384,-743v209,0,349,145,349,380v0,239,-142,381,-349,381v-211,0,-349,-146,-349,-381v0,-235,140,-380,349,-380","w":767},"\u0151":{"d":"303,-761r-114,160r-57,0r76,-160r95,0xm469,-761r-114,160r-57,0r76,-160r95,0xm416,-265v0,-60,-5,-123,-46,-168v-47,-50,-135,-50,-182,0v-41,45,-46,108,-46,168v0,60,5,123,46,168v47,50,135,50,182,0v41,-45,46,-108,46,-168xm279,-542v145,0,242,109,242,277v0,167,-95,277,-242,277v-145,0,-242,-109,-242,-277v0,-167,95,-277,242,-277","w":559},"\u0154":{"d":"428,-956r-114,160r-57,0r76,-160r95,0xm568,-513v0,43,-10,180,-183,214r241,299r-116,0r-234,-289r-96,0r0,289r-100,0r0,-725v161,7,317,-27,420,55v50,40,68,99,68,157xm180,-364v95,-2,181,14,242,-39v62,-54,66,-157,5,-212v-59,-54,-151,-31,-247,-35r0,286","w":629},"\u0155":{"d":"350,-761r-114,160r-57,0r76,-160r95,0xm398,-450v-111,-28,-197,32,-228,122r0,328r-95,0r0,-530r95,0r0,101v45,-78,116,-128,228,-109r0,88","w":410},"\u0158":{"d":"568,-513v0,43,-10,180,-183,214r241,299r-116,0r-234,-289r-96,0r0,289r-100,0r0,-725v161,7,317,-27,420,55v50,40,68,99,68,157xm314,-848r81,-90r76,0r-110,142r-94,0r-110,-142r76,0xm180,-364v95,-2,181,14,242,-39v62,-54,66,-157,5,-212v-59,-54,-151,-31,-247,-35r0,286","w":629},"\u0159":{"d":"398,-450v-111,-28,-197,32,-228,122r0,328r-95,0r0,-530r95,0r0,101v45,-78,116,-128,228,-109r0,88xm237,-653r81,-90r76,0r-110,142r-94,0r-110,-142r76,0","w":410},"\u015a":{"d":"415,-956r-114,160r-57,0r76,-160r95,0xm562,-199v0,233,-330,268,-522,157r0,-93v81,45,169,78,255,78v85,0,167,-33,167,-118v0,-70,-55,-110,-165,-145r-45,-15v-166,-55,-212,-103,-212,-191v0,-224,286,-259,472,-174r0,85v-68,-27,-138,-53,-212,-53v-77,0,-160,28,-160,114v0,66,49,84,167,123r46,14v152,50,209,123,209,218","w":602},"\u015b":{"d":"357,-761r-114,160r-57,0r76,-160r95,0xm444,-159v0,101,-87,171,-221,171v-33,0,-102,-3,-164,-31r0,-77v62,27,130,37,174,37v72,0,116,-31,116,-80v0,-79,-101,-82,-163,-105v-69,-26,-127,-74,-127,-145v0,-92,95,-153,208,-153v41,0,92,8,142,22r0,76v-50,-14,-100,-27,-145,-27v-58,0,-111,21,-111,66v0,67,105,74,162,95v67,25,129,66,129,151","w":485},"\u015c":{"d":"458,-796r-76,0r-81,-90r-81,90r-76,0r110,-142r94,0xm562,-199v0,233,-330,268,-522,157r0,-93v81,45,169,78,255,78v85,0,167,-33,167,-118v0,-70,-55,-110,-165,-145r-45,-15v-166,-55,-212,-103,-212,-191v0,-224,286,-259,472,-174r0,85v-68,-27,-138,-53,-212,-53v-77,0,-160,28,-160,114v0,66,49,84,167,123r46,14v152,50,209,123,209,218","w":602},"\u015d":{"d":"400,-601r-76,0r-81,-90r-81,90r-76,0r110,-142r94,0xm444,-159v0,101,-87,171,-221,171v-33,0,-102,-3,-164,-31r0,-77v62,27,130,37,174,37v72,0,116,-31,116,-80v0,-79,-101,-82,-163,-105v-69,-26,-127,-74,-127,-145v0,-92,95,-153,208,-153v41,0,92,8,142,22r0,76v-50,-14,-100,-27,-145,-27v-58,0,-111,21,-111,66v0,67,105,74,162,95v67,25,129,66,129,151","w":485},"\u0164":{"d":"578,-650r-234,0r0,650r-100,0r0,-650r-234,0r0,-75r568,0r0,75xm294,-848r81,-90r76,0r-110,142r-94,0r-110,-142r76,0","w":587},"\u0165":{"d":"190,-173v0,63,1,114,64,114v19,0,47,-4,68,-8r0,71v-31,5,-62,8,-89,8v-134,0,-138,-77,-138,-203r0,-268r-71,0r0,-71r71,0r0,-120r95,0r0,120r132,0r0,71r-132,0r0,286xm167,-893r81,-90r76,0r-110,142r-94,0r-110,-142r76,0","w":334},"\u016a":{"d":"497,-825r-284,0r0,-71r284,0r0,71xm630,-277v0,86,1,173,-71,232v-105,87,-303,87,-408,1v-73,-59,-71,-147,-71,-233r0,-448r100,0r0,466v0,58,-1,118,46,159v66,59,193,59,259,0v46,-41,45,-101,45,-159r0,-466r100,0r0,448"},"\u016b":{"d":"425,-630r-284,0r0,-71r284,0r0,71xm170,-185v0,62,1,126,75,126v65,0,116,-47,151,-108r0,-363r95,0r0,530r-95,0r0,-84v-48,57,-111,96,-185,96v-139,0,-136,-131,-136,-215r0,-327r95,0r0,345","w":565},"\u016c":{"d":"494,-903v0,64,-68,100,-139,100v-71,0,-139,-36,-139,-100r76,0v0,28,31,43,63,43v32,0,63,-15,63,-43r76,0xm630,-277v0,86,1,173,-71,232v-105,87,-303,87,-408,1v-73,-59,-71,-147,-71,-233r0,-448r100,0r0,466v0,58,-1,118,46,159v66,59,193,59,259,0v46,-41,45,-101,45,-159r0,-466r100,0r0,448"},"\u016d":{"d":"422,-708v0,64,-68,100,-139,100v-71,0,-139,-36,-139,-100r76,0v0,28,31,43,63,43v32,0,63,-15,63,-43r76,0xm170,-185v0,62,1,126,75,126v65,0,116,-47,151,-108r0,-363r95,0r0,530r-95,0r0,-84v-48,57,-111,96,-185,96v-139,0,-136,-131,-136,-215r0,-327r95,0r0,345","w":565},"\u016e":{"d":"412,-894v0,-32,-26,-57,-57,-57v-31,0,-57,25,-57,57v0,31,26,56,57,56v31,0,57,-25,57,-56xm469,-894v0,59,-53,104,-114,104v-61,0,-114,-45,-114,-104v0,-60,53,-104,114,-104v61,0,114,44,114,104xm630,-277v0,86,1,173,-71,232v-105,87,-303,87,-408,1v-73,-59,-71,-147,-71,-233r0,-448r100,0r0,466v0,58,-1,118,46,159v66,59,193,59,259,0v46,-41,45,-101,45,-159r0,-466r100,0r0,448"},"\u016f":{"d":"340,-699v0,-32,-26,-57,-57,-57v-31,0,-57,25,-57,57v0,31,26,56,57,56v31,0,57,-25,57,-56xm397,-699v0,59,-53,104,-114,104v-61,0,-114,-45,-114,-104v0,-60,53,-104,114,-104v61,0,114,44,114,104xm170,-185v0,62,1,126,75,126v65,0,116,-47,151,-108r0,-363r95,0r0,530r-95,0r0,-84v-48,57,-111,96,-185,96v-139,0,-136,-131,-136,-215r0,-327r95,0r0,345","w":565},"\u0170":{"d":"379,-956r-114,160r-57,0r76,-160r95,0xm545,-956r-114,160r-57,0r76,-160r95,0xm630,-277v0,86,1,173,-71,232v-105,87,-303,87,-408,1v-73,-59,-71,-147,-71,-233r0,-448r100,0r0,466v0,58,-1,118,46,159v66,59,193,59,259,0v46,-41,45,-101,45,-159r0,-466r100,0r0,448"},"\u0171":{"d":"306,-761r-114,160r-57,0r76,-160r95,0xm472,-761r-114,160r-57,0r76,-160r95,0xm170,-185v0,62,1,126,75,126v65,0,116,-47,151,-108r0,-363r95,0r0,530r-95,0r0,-84v-48,57,-111,96,-185,96v-139,0,-136,-131,-136,-215r0,-327r95,0r0,345","w":565},"\u0174":{"d":"625,-796r-76,0r-81,-90r-81,90r-76,0r110,-142r94,0xm926,-725r-173,725r-124,0r-163,-573r-149,573r-126,0r-181,-725r100,0r153,613r159,-613r100,0r175,612r146,-612r83,0","w":936},"\u0175":{"d":"517,-601r-76,0r-81,-90r-81,90r-76,0r110,-142r94,0xm710,-530r-132,530r-109,0r-103,-386r-108,386r-105,0r-143,-530r85,0r114,424r118,-424r85,0r114,424r105,-424r79,0","w":720},"\u0176":{"d":"476,-796r-76,0r-81,-90r-81,90r-76,0r110,-142r94,0xm373,0r-100,0r0,-290r-263,-435r100,0r221,365r214,-365r83,0r-255,435r0,290","w":638},"\u0177":{"d":"404,-601r-76,0r-81,-90r-81,90r-76,0r110,-142r94,0xm484,-530r-253,723r-79,0r59,-168r-201,-555r95,0r154,418r146,-418r79,0","w":495},"\u0178":{"d":"461,-825r-95,0r0,-95r95,0r0,95xm272,-825r-95,0r0,-95r95,0r0,95xm373,0r-100,0r0,-290r-263,-435r100,0r221,365r214,-365r83,0r-255,435r0,290","w":638},"\u0179":{"d":"421,-956r-114,160r-57,0r76,-160r95,0xm574,0r-534,0r0,-93r432,-557r-416,0r0,-75r518,0r0,93r-432,557r432,0r0,75","w":613},"\u017a":{"d":"364,-761r-114,160r-57,0r76,-160r95,0xm458,0r-416,0r0,-80r312,-379r-300,0r0,-71r404,0r0,80r-312,379r312,0r0,71","w":499},"\u017b":{"d":"353,-825r-94,0r0,-95r94,0r0,95xm574,0r-534,0r0,-93r432,-557r-416,0r0,-75r518,0r0,93r-432,557r432,0r0,75","w":613},"\u017c":{"d":"296,-630r-94,0r0,-95r94,0r0,95xm458,0r-416,0r0,-80r312,-379r-300,0r0,-71r404,0r0,80r-312,379r312,0r0,71","w":499},"\u017d":{"d":"574,0r-534,0r0,-93r432,-557r-416,0r0,-75r518,0r0,93r-432,557r432,0r0,75xm307,-848r81,-90r76,0r-110,142r-94,0r-110,-142r76,0","w":613},"\u017e":{"d":"458,0r-416,0r0,-80r312,-379r-300,0r0,-71r404,0r0,80r-312,379r312,0r0,71xm250,-653r81,-90r76,0r-110,142r-94,0r-110,-142r76,0","w":499},"\u01cd":{"d":"648,0r-100,0r-76,-202r-305,0r-74,202r-83,0r265,-725r100,0xm316,-848r81,-90r76,0r-110,142r-94,0r-110,-142r76,0xm444,-277r-127,-336r-123,336r250,0","w":658},"\u01ce":{"d":"42,-134v0,-149,172,-177,320,-175v-2,-91,15,-162,-110,-162v-58,0,-118,15,-175,39r0,-73v60,-26,124,-37,188,-37v191,0,192,105,192,209r0,333r-95,0r0,-70v-48,48,-107,82,-174,82v-89,0,-146,-61,-146,-146xm260,-653r81,-90r76,0r-110,142r-94,0r-110,-142r76,0xm362,-252v-102,-4,-225,15,-225,113v0,48,33,80,85,80v54,0,100,-34,140,-77r0,-116","w":522},"\u01cf":{"d":"180,0r-100,0r0,-725r100,0r0,725xm130,-848r81,-90r76,0r-110,142r-94,0r-110,-142r76,0","w":260},"\u01d0":{"d":"170,0r-95,0r0,-530r95,0r0,530xm122,-653r81,-90r76,0r-110,142r-94,0r-110,-142r76,0","w":245},"\u01d1":{"d":"623,-363v0,-89,-12,-183,-76,-245v-85,-82,-241,-82,-326,0v-64,62,-76,156,-76,245v0,90,12,184,76,246v85,82,241,82,326,0v64,-62,76,-156,76,-246xm384,-743v209,0,349,145,349,380v0,239,-142,381,-349,381v-211,0,-349,-146,-349,-381v0,-235,140,-380,349,-380xm384,-848r81,-90r76,0r-110,142r-94,0r-110,-142r76,0","w":767},"\u01d2":{"d":"416,-265v0,-60,-5,-123,-46,-168v-47,-50,-135,-50,-182,0v-41,45,-46,108,-46,168v0,60,5,123,46,168v47,50,135,50,182,0v41,-45,46,-108,46,-168xm279,-542v145,0,242,109,242,277v0,167,-95,277,-242,277v-145,0,-242,-109,-242,-277v0,-167,95,-277,242,-277xm279,-653r81,-90r76,0r-110,142r-94,0r-110,-142r76,0","w":559},"\u01d3":{"d":"630,-277v0,86,1,173,-71,232v-105,87,-303,87,-408,1v-73,-59,-71,-147,-71,-233r0,-448r100,0r0,466v0,58,-1,118,46,159v66,59,193,59,259,0v46,-41,45,-101,45,-159r0,-466r100,0r0,448xm355,-848r81,-90r76,0r-110,142r-94,0r-110,-142r76,0"},"\u01d4":{"d":"170,-185v0,62,1,126,75,126v65,0,116,-47,151,-108r0,-363r95,0r0,530r-95,0r0,-84v-48,57,-111,96,-185,96v-139,0,-136,-131,-136,-215r0,-327r95,0r0,345xm283,-653r81,-90r76,0r-110,142r-94,0r-110,-142r76,0","w":565},"\u01e6":{"d":"35,-362v0,-240,139,-381,352,-381v75,0,155,17,231,44r0,83v-134,-50,-297,-89,-398,9v-63,62,-75,155,-75,245v0,89,12,182,75,244v73,72,188,73,298,39r0,-191r-93,0r0,-75r193,0r0,316v-77,26,-156,47,-235,47v-209,0,-348,-144,-348,-380xm380,-848r81,-90r76,0r-110,142r-94,0r-110,-142r76,0","w":657},"\u01e7":{"d":"252,-231v93,0,111,-54,111,-120v0,-69,-22,-120,-111,-120v-97,0,-110,65,-110,120v0,69,20,120,110,120xm37,-351v0,-78,53,-191,215,-191v39,0,79,7,113,24v33,-36,77,-60,126,-60r0,72v-29,0,-57,5,-81,18v112,120,62,326,-158,329v-23,0,-46,-3,-69,-9v-46,52,6,81,80,95r93,18v59,11,144,31,144,120v0,103,-132,129,-263,129v-47,0,-123,-4,-195,-23r0,-83v83,23,168,34,244,34v62,0,120,-8,120,-50v0,-41,-60,-48,-76,-51r-94,-18v-57,-11,-148,-31,-148,-114v0,-31,16,-59,39,-80v-59,-35,-90,-98,-90,-160xm257,-653r81,-90r76,0r-110,142r-94,0r-110,-142r76,0","w":515},"\u01e8":{"d":"592,0r-100,0r-273,-326r-39,44r0,282r-100,0r0,-725r100,0r0,324r291,-324r106,0r-306,341xm307,-848r81,-90r76,0r-110,142r-94,0r-110,-142r76,0","w":615},"\u01e9":{"d":"477,0r-96,0r-181,-227r-30,36r0,191r-95,0r0,-770r95,0r0,461r183,-221r99,0r-196,235xm246,-893r81,-90r76,0r-110,142r-94,0r-110,-142r76,0","w":492},"\u01f0":{"d":"1,134v73,0,73,-69,73,-146r0,-518r95,0r0,490v0,128,0,245,-154,245v-37,0,-64,-7,-90,-16r0,-74v23,9,49,19,76,19xm122,-653r81,-90r76,0r-110,142r-94,0r-110,-142r76,0","w":245},"\u0237":{"d":"1,134v73,0,73,-69,73,-146r0,-518r95,0r0,490v0,128,0,245,-154,245v-37,0,-64,-7,-90,-16r0,-74v23,9,49,19,76,19","w":245},"\u02c6":{"d":"512,-601r-76,0r-81,-90r-81,90r-76,0r110,-142r94,0"},"\u02c7":{"d":"355,-653r81,-90r76,0r-110,142r-94,0r-110,-142r76,0"},"\u02d8":{"d":"494,-708v0,64,-68,100,-139,100v-71,0,-139,-36,-139,-100r76,0v0,28,31,43,63,43v32,0,63,-15,63,-43r76,0"},"\u02d9":{"d":"174,-630r-94,0r0,-95r94,0r0,95","w":255},"\u02da":{"d":"412,-699v0,-32,-26,-57,-57,-57v-31,0,-57,25,-57,57v0,31,26,56,57,56v31,0,57,-25,57,-56xm469,-699v0,59,-53,104,-114,104v-61,0,-114,-45,-114,-104v0,-60,53,-104,114,-104v61,0,114,44,114,104"},"\u02dd":{"d":"230,-761r-114,160r-57,0r76,-160r95,0xm396,-761r-114,160r-57,0r76,-160r95,0","w":436},"\u0300":{"d":"211,-601r-57,0r-114,-160r95,0","w":270},"\u2018":{"d":"150,-770v-13,78,-40,142,-36,237r-94,0r0,-63r71,-174r59,0","w":215},"\u2019":{"d":"194,-707r-71,174r-59,0v13,-78,40,-142,36,-237r94,0r0,63","w":215},"\u201c":{"d":"346,-770v-13,78,-40,142,-36,237r-95,0r0,-63r71,-174r60,0xm171,-770v-13,78,-40,142,-36,237r-95,0r0,-63r71,-174r60,0","w":390},"\u201d":{"d":"350,-707r-71,174r-60,0v13,-78,40,-142,36,-237r95,0r0,63xm175,-707r-71,174r-60,0v13,-78,40,-142,36,-237r95,0r0,63","w":390},"\u2423":{"d":"500,211r-500,0r0,-1204r500,0r0,1204","w":500}}});
/*!
 * The following copyright notice may not be removed under any circumstances.
 * 
 * Copyright:
 * Copyright (c) 2007, Stephen G. Hartke (lastname at gmail dot com). Licensed
 * under OFL 1.1 with Reserved Font Name Aurulent.
 * 
 * License information:
 * http://scripts.sil.org/ofl
 */
Cufon.registerFont({"w":292,"face":{"font-family":"Aurulent Sans","font-weight":700,"font-stretch":"normal","units-per-em":"1000","panose-1":"2 0 8 3 0 0 0 0 0 0","ascent":"800","descent":"-200","x-height":"18","bbox":"-75 -1115 1044 214","underline-thickness":"94","underline-position":"-7","stemh":"94","stemv":"142","unicode-range":"U+0020-U+2423"},"glyphs":{" ":{"w":250},"!":{"d":"222,-723v4,172,-16,331,-14,496r-114,0v0,-116,-14,-232,-14,-347r0,-149r142,0xm222,0r-142,0r0,-142r142,0r0,142","w":302},"\"":{"d":"404,-658r-21,128r-100,0r-21,-128r0,-128r142,0r0,128xm182,-658r-21,128r-100,0r-21,-128r0,-128r142,0r0,128","w":445},"#":{"d":"374,-437r-89,0r-29,151r89,0xm617,-503r-13,66r-130,0r-29,151r131,0r-13,66r-131,0r-42,220r-99,0r42,-220r-90,0r-42,220r-99,0r42,-220r-131,0r13,-66r130,0r29,-151r-131,0r13,-66r131,0r42,-220r99,0r-42,220r90,0r42,-220r99,0r-42,220r131,0","w":630},"$":{"d":"335,94r-79,0r0,-94v-60,-1,-145,-13,-216,-58r0,-104v71,44,152,66,216,68r0,-226v-94,-29,-216,-85,-216,-212v0,-103,93,-172,216,-188r0,-97r79,0r0,95v45,2,100,11,152,32r0,116v-48,-19,-103,-41,-152,-50r0,194v122,47,205,106,205,217v0,113,-85,187,-205,207r0,100xm256,-461r0,-165v-40,8,-74,33,-74,75v0,45,38,72,74,90xm335,-284r0,180v39,-13,63,-41,63,-84v0,-43,-24,-72,-63,-96","w":580},"%":{"d":"612,-176v0,-48,-9,-101,-50,-101v-42,0,-50,53,-50,101v0,48,8,101,50,101v41,0,50,-53,50,-101xm726,-176v0,95,-71,176,-164,176v-93,0,-164,-81,-164,-176v0,-95,71,-176,164,-176v93,0,164,81,164,176xm254,-547v0,-48,-8,-101,-50,-101v-41,0,-50,53,-50,101v0,48,9,101,50,101v42,0,50,-53,50,-101xm368,-547v0,95,-71,176,-164,176v-93,0,-164,-81,-164,-176v0,-95,71,-176,164,-176v93,0,164,81,164,176xm663,-741r-430,759r-130,0r430,-759r130,0","w":765},"&":{"d":"435,-27v-144,100,-395,30,-395,-176v0,-103,67,-185,141,-217v-25,-45,-39,-94,-39,-138v0,-106,78,-183,173,-183v94,0,173,72,173,173v0,84,-56,159,-122,195r82,140v9,-41,12,-85,12,-129r118,0v0,89,-20,177,-62,246r69,116r-132,0xm305,-473v29,-29,41,-70,41,-117v0,-19,-2,-57,-31,-57v-31,0,-31,42,-31,60v0,45,8,82,21,114xm182,-203v1,144,128,151,202,96r-141,-220v-43,28,-61,74,-61,124","w":630},"'":{"d":"182,-642r-18,143r-106,0r-18,-143r0,-144r142,0r0,144","w":222},"(":{"d":"344,129r-121,0v-86,-141,-183,-299,-183,-450v0,-150,97,-308,183,-449r121,0v-85,138,-162,287,-162,449v0,163,77,311,162,450","w":345},")":{"d":"304,-321v0,151,-97,309,-183,450r-121,0v85,-139,162,-287,162,-450v0,-162,-77,-311,-162,-449r121,0v86,141,183,299,183,449","w":345},"*":{"d":"466,-296r-50,86v-57,-29,-96,-79,-143,-117v8,61,34,114,30,182r-100,0v-4,-68,22,-120,30,-182v-48,37,-86,88,-143,117r-50,-86v50,-33,117,-44,174,-66v-57,-21,-124,-32,-174,-65r50,-86v57,29,96,79,143,117v-8,-61,-34,-114,-30,-182r100,0v4,68,-22,120,-30,182v48,-37,86,-88,143,-117r50,86v-50,33,-117,44,-174,66v57,21,124,32,174,65","w":505},"+":{"d":"534,-260r-188,0r0,176r-118,0r0,-176r-188,0r0,-94r188,0r0,-176r118,0r0,176r188,0r0,94","w":575},",":{"d":"222,-47r-107,261r-89,0r54,-261r0,-95r142,0r0,95","w":302},"-":{"d":"260,-260r-220,0r0,-94r220,0r0,94","w":300},".":{"d":"222,0r-142,0r0,-142r142,0r0,142","w":302},"\/":{"d":"339,-770r-220,899r-120,0r220,-899r120,0","w":338},"0":{"d":"315,-68v111,-15,125,-181,125,-295v0,-114,-14,-278,-125,-294v-111,15,-125,181,-125,294v0,115,13,278,125,295xm33,-363v0,-236,105,-388,282,-388v81,0,158,36,205,102v59,82,77,185,77,286v0,102,-19,204,-77,287v-93,134,-317,134,-410,0v-58,-83,-77,-185,-77,-287","w":630},"1":{"d":"574,0r-459,0r0,-94r176,0r0,-525r-176,52r0,-94r205,-69r114,0r0,636r140,0r0,94","w":630},"2":{"d":"550,-540v0,202,-308,269,-369,446r369,0r0,94r-510,0r0,-102v83,-205,368,-256,368,-438v0,-68,-64,-117,-136,-117v-71,0,-141,20,-206,51r0,-104v182,-90,484,-33,484,170","w":630},"3":{"d":"434,-205v0,-109,-136,-137,-253,-131r0,-94v115,8,227,-25,227,-121v0,-51,-23,-106,-116,-106v-63,0,-126,16,-186,36r0,-105v60,-20,123,-25,186,-25v159,0,258,80,258,200v0,84,-64,136,-150,162v136,25,176,120,176,184v0,138,-117,231,-284,231v-72,0,-144,-6,-212,-29r0,-105v69,23,140,40,212,40v93,0,142,-60,142,-137","w":630},"4":{"d":"503,0r-143,0r0,-207r-350,0r0,-94r350,-424r143,0r0,424r99,0r0,94r-99,0r0,207xm152,-301r208,0r0,-251","w":630},"5":{"d":"576,-218v0,98,-61,244,-370,244v-43,0,-87,-2,-128,-15r0,-104v98,33,217,43,304,-14v78,-51,66,-192,-19,-229v-75,-33,-163,-35,-259,-33r0,-356r446,0r0,94r-328,0r0,169v77,4,152,16,222,48v78,36,132,111,132,196","w":630},"6":{"d":"315,-68v104,0,133,-74,133,-158v0,-102,-59,-162,-113,-162v-85,0,-160,60,-160,142v0,92,55,178,140,178xm335,-473v167,0,255,105,255,247v0,279,-367,329,-488,142v-53,-82,-62,-181,-62,-279v0,-296,163,-388,336,-388v49,0,99,6,143,28r0,107v-45,-23,-93,-41,-143,-41v-115,0,-180,92,-191,229v41,-29,95,-45,150,-45","w":630},"7":{"d":"476,-612r-436,0r0,-113r550,0r0,113v-72,81,-128,173,-184,265v-65,107,-108,224,-129,347r-144,0v50,-241,193,-451,343,-612","w":630},"8":{"d":"419,-573v0,-57,-47,-103,-104,-103v-57,0,-104,46,-104,103v0,66,71,97,137,121v43,-24,71,-70,71,-121xm448,-187v0,-86,-83,-139,-167,-171v-61,32,-99,99,-99,171v0,75,59,138,133,138v74,0,133,-63,133,-138xm590,-187v0,131,-133,213,-275,213v-142,0,-275,-82,-275,-213v0,-96,76,-165,170,-203v-72,-41,-127,-103,-127,-183v0,-110,113,-178,232,-178v119,0,232,68,232,178v0,72,-56,123,-126,153v95,50,169,129,169,233","w":630},"9":{"d":"182,-499v0,102,59,162,113,162v85,0,160,-60,160,-142v0,-92,-55,-178,-140,-178v-104,0,-133,74,-133,158xm40,-499v0,-279,367,-329,488,-142v53,82,62,181,62,278v0,102,-16,207,-82,284v-90,105,-254,134,-397,77r0,-107v45,23,93,41,143,41v115,0,180,-92,191,-229v-41,29,-95,45,-150,45v-167,0,-255,-105,-255,-247","w":630},":":{"d":"222,-388r-142,0r0,-142r142,0r0,142xm222,0r-142,0r0,-142r142,0r0,142","w":302},";":{"d":"222,-388r-142,0r0,-142r142,0r0,142xm222,-47r-107,261r-89,0r54,-261r0,-95r142,0r0,95","w":302},"<":{"d":"508,-77r-468,-212r0,-36r468,-212r0,108r-259,122r259,122r0,108","w":547},"=":{"d":"534,-166r-494,0r0,-94r494,0r0,94xm534,-354r-494,0r0,-94r494,0r0,94","w":575},">":{"d":"508,-325r0,36r-468,212r0,-108r259,-122r-259,-122r0,-108","w":547},"?":{"d":"345,0r-142,0r0,-142r142,0r0,142xm590,-561v-1,167,-263,138,-245,334r-142,0v-2,-49,9,-89,29,-121v59,-90,216,-95,216,-200v0,-75,-82,-99,-164,-99v-75,0,-153,20,-226,53r0,-102v72,-32,151,-45,225,-45v154,0,307,55,307,180","w":630},"@":{"d":"662,-521v-6,-28,-31,-116,-194,-116v-184,0,-298,110,-298,340v0,270,163,377,396,328r0,82v-297,38,-514,-78,-514,-410v0,-300,175,-418,420,-418v97,0,179,19,234,61v80,61,80,150,80,240r0,343r-118,0r0,-67v-115,117,-319,88,-319,-154v0,-192,141,-240,240,-240v26,0,51,3,73,11xm668,-463v-104,-26,-189,40,-189,154v0,141,93,171,189,123r0,-277","w":877},"A":{"d":"730,0r-150,0r-76,-190r-296,0r-73,190r-125,0r279,-725r150,0xm464,-289r-112,-278r-106,278r218,0","w":739},"B":{"d":"448,-387v100,24,190,88,190,194v0,59,-25,108,-74,141v-121,79,-305,44,-484,52r0,-725v167,7,333,-28,447,49v54,36,74,91,74,137v0,91,-81,135,-153,152xm230,-99v117,1,256,17,258,-97v0,-39,-18,-75,-48,-100v-60,-50,-126,-41,-210,-42r0,239xm230,-437v104,7,221,-6,221,-100v0,-22,-9,-48,-32,-66v-48,-36,-117,-19,-189,-23r0,189","w":678},"C":{"d":"32,-362v0,-211,127,-389,390,-389v76,0,159,14,238,41r0,112v-132,-47,-289,-94,-391,0v-62,57,-71,149,-71,236v0,86,9,178,71,235v113,103,270,38,391,-26r0,124v-76,37,-160,55,-242,55v-259,0,-386,-178,-386,-388","w":700},"D":{"d":"506,-174v84,-96,86,-275,7,-379v-76,-99,-157,-68,-283,-73r0,527v118,-2,196,16,276,-75xm720,-364v0,102,-40,193,-108,258v-149,140,-310,99,-532,106r0,-725v227,9,393,-42,539,106v64,64,101,156,101,255","w":759},"E":{"d":"632,0r-552,0r0,-725r540,0r0,99r-390,0r0,189r311,0r0,99r-311,0r0,239r402,0r0,99","w":659},"F":{"d":"600,-626r-370,0r0,189r294,0r0,99r-294,0r0,338r-150,0r0,-725r520,0r0,99","w":640},"G":{"d":"32,-362v0,-154,82,-389,408,-389v81,0,168,15,252,42r0,110v-140,-46,-307,-93,-417,1v-66,56,-77,149,-77,236v0,86,12,178,77,235v68,61,169,65,267,38r0,-170r-76,0r0,-99r226,0r0,331v-84,30,-171,53,-263,53v-256,0,-397,-173,-397,-388","w":731},"H":{"d":"700,0r-150,0r0,-313r-320,0r0,313r-150,0r0,-725r150,0r0,313r320,0r0,-313r150,0r0,725","w":780},"I":{"d":"230,0r-150,0r0,-725r150,0r0,725","w":310},"J":{"d":"159,-73v91,0,115,-84,115,-176r0,-476r150,0r0,449v0,90,-1,178,-64,241v-67,67,-230,77,-350,38r0,-110v47,15,105,34,149,34","w":503},"K":{"d":"661,0r-150,0r-236,-307r-45,52r0,255r-150,0r0,-725r150,0r0,296r257,-296r152,0r-284,326","w":678},"L":{"d":"596,0r-516,0r0,-725r150,0r0,626r366,0r0,99","w":606},"M":{"d":"836,0r-150,0r0,-576r-159,525r-150,0r-172,-525r0,576r-125,0r0,-725r226,0r156,476r145,-476r229,0r0,725","w":916},"N":{"d":"205,0r-125,0r0,-725r150,0r345,532r0,-532r125,0r0,725r-150,0r-345,-532r0,532","w":780},"O":{"d":"658,-363v0,-86,-10,-178,-75,-235v-84,-74,-226,-74,-310,0v-65,57,-75,149,-75,235v0,87,10,179,75,236v84,74,226,74,310,0v65,-57,75,-149,75,-236xm428,-751v264,0,396,178,396,388v0,212,-133,389,-396,389v-263,0,-396,-177,-396,-389v0,-212,134,-388,396,-388","w":855},"P":{"d":"589,-670v115,83,105,242,-4,330v-96,77,-216,61,-355,63r0,277r-150,0r0,-725v188,8,385,-33,509,55xm230,-376v97,-5,189,21,248,-36v54,-52,59,-137,1,-184v-59,-48,-155,-25,-249,-30r0,250","w":699},"Q":{"d":"658,-363v0,-86,-10,-178,-75,-235v-84,-74,-226,-74,-310,0v-65,57,-75,149,-75,235v0,87,10,179,75,236v60,53,143,67,230,44v-36,-49,-82,-73,-131,-86r26,-97v85,23,158,75,196,128v54,-58,64,-143,64,-225xm428,-751v264,0,396,178,396,388v0,149,-67,272,-173,334v43,65,102,92,165,92r0,99v-119,0,-224,-71,-266,-151v-40,10,-80,15,-122,15v-263,0,-396,-177,-396,-389v0,-212,134,-388,396,-388","w":855},"R":{"d":"613,-507v0,85,-44,180,-171,214r258,293r-174,0r-243,-277r-53,0r0,277r-150,0r0,-725v174,7,345,-29,459,57v53,40,74,100,74,161xm463,-507v0,-123,-108,-119,-158,-119r-75,0r0,250v77,-2,144,9,195,-34v28,-25,38,-63,38,-97","w":697},"S":{"d":"628,-205v0,153,-143,231,-344,231v-51,0,-156,-2,-244,-52r0,-131v90,52,190,84,283,84v81,0,155,-24,155,-100v0,-63,-53,-96,-155,-129r-67,-22v-171,-56,-216,-107,-216,-196v0,-234,309,-275,513,-191r0,114v-71,-27,-143,-55,-222,-55v-66,0,-141,19,-141,93v0,59,48,74,158,110r68,22v155,51,212,125,212,222","w":669},"T":{"d":"650,-626r-245,0r0,626r-150,0r0,-626r-245,0r0,-99r640,0r0,99","w":659},"U":{"d":"700,-279v0,89,1,180,-80,241v-120,90,-341,89,-460,0v-82,-61,-80,-152,-80,-241r0,-446r150,0r0,470v0,52,0,105,42,143v59,53,177,52,236,0v42,-38,42,-91,42,-143r0,-470r150,0r0,446","w":780},"V":{"d":"382,-161r211,-564r125,0r-273,725r-150,0r-285,-725r150,0","w":728},"W":{"d":"1044,-725r-174,725r-194,0r-151,-502r-131,502r-197,0r-187,-725r150,0r149,576r149,-576r150,0r173,577r138,-577r125,0","w":1053},"X":{"d":"727,0r-168,0r-202,-265r-211,265r-147,0r286,-360r-278,-365r168,0r196,258r205,-258r148,0r-281,352","w":728},"Y":{"d":"440,0r-150,0r0,-290r-280,-435r150,0r216,336r207,-336r125,0r-268,435r0,290","w":717},"Z":{"d":"642,0r-602,0r0,-127r453,-499r-435,0r0,-99r584,0r0,127r-453,499r453,0r0,99","w":681},"[":{"d":"368,129r-328,0r0,-899r328,0r0,94r-185,0r-1,711r186,0r0,94","w":377},"\\":{"d":"339,129r-120,0r-220,-899r120,0","w":338},"]":{"d":"338,129r-328,0r0,-94r185,0r1,-711r-186,0r0,-94r328,0r0,899","w":377},"^":{"d":"496,-362r-127,0r-112,-231r-112,231r-127,0r176,-361r126,0","w":515},"_":{"d":"500,94r-500,0r0,-94r500,0r0,94","w":500},"`":{"d":"235,-550r-89,0r-106,-173r0,-63r142,0r0,63","w":293},"a":{"d":"42,-137v0,-154,176,-181,330,-182v-2,-76,14,-135,-95,-135v-62,0,-124,22,-182,49r0,-104v62,-30,131,-39,198,-39v222,0,222,110,222,216r0,332r-143,0r0,-53v-48,41,-103,71,-168,71v-95,0,-162,-64,-162,-155xm372,-243v-85,-3,-188,18,-188,100v0,40,26,67,76,67v39,0,77,-17,112,-44r0,-123","w":580},"b":{"d":"567,-304v0,95,-25,165,-60,218v-69,104,-267,140,-432,67r0,-751r142,0r0,321v37,-58,94,-99,170,-99v75,0,180,41,180,244xm268,-76v117,0,142,-97,142,-214v0,-122,-25,-164,-79,-164v-47,0,-94,34,-114,84r0,288v17,4,34,6,51,6","w":601},"c":{"d":"184,-265v0,91,32,189,158,189v54,0,115,-16,174,-32r0,102v-59,16,-120,24,-174,24v-205,0,-300,-121,-300,-283v0,-125,60,-283,302,-283v52,0,113,7,172,21r0,99v-60,-13,-120,-26,-171,-26v-129,0,-161,95,-161,189","w":557},"d":{"d":"35,-249v0,-239,149,-314,350,-297r0,-224r142,0r0,770r-142,0r0,-72v-35,53,-88,90,-154,90v-88,0,-196,-65,-196,-267xm334,-454v-114,0,-142,88,-142,198v0,124,37,180,95,180v46,0,84,-36,98,-82r0,-291v-17,-3,-34,-5,-51,-5","w":601},"e":{"d":"198,-333r212,0v-8,-83,-41,-131,-100,-131v-55,0,-97,43,-112,131xm536,-19v-228,84,-502,34,-501,-254v0,-215,153,-275,269,-275v119,0,250,63,250,257v0,13,-1,27,-2,42r-360,0v0,233,190,181,344,136r0,94","w":597},"f":{"d":"130,-525v2,-151,23,-263,205,-263v39,0,68,5,97,14r0,96v-24,-7,-53,-16,-80,-16v-82,-1,-79,78,-79,169r142,0r0,84r-142,0r0,441r-143,0r0,-441r-94,0r0,-84r94,0","w":422},"g":{"d":"277,-231v84,0,85,-66,85,-111v0,-35,-1,-73,-28,-95v-16,-12,-37,-17,-57,-17v-84,0,-85,66,-85,112v0,35,1,72,28,94v16,13,36,17,57,17xm35,-342v0,-83,60,-206,242,-206v40,0,81,6,118,22v44,-41,99,-69,159,-69r0,94v-33,0,-65,5,-94,18v37,37,59,88,59,141v0,128,-124,227,-290,203v-6,29,8,35,66,50v108,29,268,11,274,144v5,108,-129,140,-291,138v-55,0,-153,-1,-236,-19r0,-108v99,21,200,33,304,33v37,0,81,-1,81,-29v0,-28,-29,-30,-36,-32r-140,-27v-58,-11,-139,-31,-139,-112v0,-25,10,-49,27,-68v-64,-36,-104,-100,-104,-173","w":568},"h":{"d":"407,-351v0,-49,-1,-103,-71,-103v-47,0,-87,22,-119,57r0,397r-142,0r0,-770r142,0r0,300v46,-47,104,-78,175,-78v160,0,157,135,157,220r0,328r-142,0r0,-351","w":623},"i":{"d":"217,-614r-142,0r0,-111r142,0r0,111xm217,0r-142,0r0,-530r142,0r0,530"},"j":{"d":"217,-614r-142,0r0,-111r142,0r0,111xm-1,117v75,0,76,-58,76,-126r0,-521r142,0r0,490v0,79,-1,158,-46,205v-47,50,-171,57,-246,32r0,-100v22,8,54,20,74,20"},"k":{"d":"532,0r-134,0v-47,-69,-98,-135,-147,-203r-34,44r0,159r-142,0r0,-770r142,0r0,429r145,-189r138,0r-168,220","w":544},"l":{"d":"217,0r-142,0r0,-770r142,0r0,770"},"m":{"d":"393,-350v0,-49,-2,-104,-74,-104v-40,0,-75,19,-102,49r0,405r-142,0r0,-530r142,0r0,48v77,-82,242,-102,301,18v65,-82,201,-124,290,-40v45,42,43,111,43,178r0,326r-142,0r0,-350v0,-49,-2,-104,-74,-104v-41,0,-76,20,-103,51v3,25,3,51,3,77r0,326r-142,0r0,-350","w":925},"n":{"d":"407,-351v0,-49,-1,-103,-71,-103v-47,0,-87,22,-119,57r0,397r-142,0r0,-530r142,0r0,60v46,-47,104,-78,175,-78v160,0,157,135,157,220r0,328r-142,0r0,-351","w":623},"o":{"d":"192,-265v0,86,29,189,121,189v29,0,57,-10,78,-31v41,-40,43,-101,43,-158v0,-86,-29,-189,-121,-189v-29,0,-57,10,-78,31v-41,40,-43,101,-43,158xm313,-548v186,0,278,133,278,283v0,149,-91,283,-278,283v-186,0,-278,-133,-278,-283v0,-149,91,-283,278,-283","w":625},"p":{"d":"567,-304v0,95,-24,165,-60,218v-48,71,-147,113,-290,102r0,177r-142,0r0,-723r142,0r0,81v37,-58,94,-99,170,-99v75,0,180,41,180,244xm268,-76v117,0,142,-97,142,-214v0,-122,-25,-164,-79,-164v-47,0,-94,34,-114,84r0,288v17,4,34,6,51,6","w":601},"q":{"d":"35,-249v0,-216,133,-299,290,-299v52,0,132,2,202,37r0,704r-142,0r0,-265v-35,53,-88,90,-154,90v-88,0,-196,-65,-196,-267xm334,-454v-114,0,-142,88,-142,198v0,124,37,180,95,180v46,0,84,-36,98,-82r0,-291v-17,-3,-34,-5,-51,-5","w":601},"r":{"d":"438,-428v-104,-27,-193,25,-221,111r0,317r-142,0r0,-530r142,0r0,103v42,-83,107,-135,221,-118r0,117","w":455},"s":{"d":"498,-167v0,112,-100,185,-250,185v-38,0,-132,0,-189,-26r0,-108v71,32,150,40,210,40v54,0,87,-24,87,-62v0,-39,-36,-52,-65,-62r-116,-37v-66,-22,-116,-76,-116,-146v2,-149,223,-197,386,-145r0,101v-52,-13,-104,-27,-153,-27v-46,0,-91,12,-91,48v0,30,34,41,62,50v103,36,235,50,235,189","w":539},"t":{"d":"273,-172v0,52,1,96,69,96v17,0,48,-4,69,-7r0,94v-34,4,-69,7,-102,7v-174,0,-179,-80,-179,-208r0,-251r-94,0r0,-84r94,0r0,-125r143,0r0,125r138,0r0,84r-138,0r0,269","w":428},"u":{"d":"217,-180v0,50,1,104,72,104v46,0,87,-22,118,-57r0,-397r142,0r0,530r-142,0r0,-60v-66,78,-211,114,-290,33v-44,-44,-42,-111,-42,-177r0,-326r142,0r0,350","w":623},"v":{"d":"297,-156r137,-374r118,0r-194,530r-142,0r-206,-530r142,0","w":561},"w":{"d":"808,-530r-141,530r-174,0r-77,-303r-82,303r-167,0r-157,-530r128,0r115,389r106,-389r128,0r99,388r104,-388r118,0","w":818},"x":{"d":"552,0r-142,0r-136,-182r-136,182r-138,0r205,-274r-191,-256r142,0r132,177r132,-177r138,0r-201,269","w":561},"y":{"d":"552,-530r-264,723r-119,0r58,-158r-217,-565r142,0r146,371r136,-371r118,0","w":561},"z":{"d":"516,0r-474,0r0,-111r321,-325r-307,0r0,-94r460,0r0,111r-321,325r321,0r0,94","w":557},"{":{"d":"172,-321v13,9,72,49,72,81r0,201v2,62,78,79,152,74r0,94v-141,9,-270,-49,-270,-168r0,-186v-31,-30,-72,-49,-116,-49r0,-94v44,0,85,-18,116,-49r0,-185v3,-119,130,-178,270,-168r0,94v-75,-5,-152,11,-152,74r0,201v0,32,-62,74,-72,80","w":406},"|":{"d":"198,129r-118,0r0,-899r118,0r0,899","w":278},"}":{"d":"234,-321v-10,-6,-72,-48,-72,-80r0,-201v-2,-62,-78,-79,-152,-74r0,-94v141,-9,270,49,270,168r0,185v31,31,72,49,116,49r0,94v-44,0,-85,19,-116,49r0,186v-3,119,-130,178,-270,168r0,-94v75,5,152,-11,152,-74r0,-201v0,-32,58,-72,72,-81","w":406},"~":{"d":"221,-419v116,0,156,130,211,130v36,0,36,-63,36,-112r142,0v0,114,-82,206,-181,206v-116,0,-156,-130,-211,-130v-36,0,-36,63,-36,112r-142,0v0,-114,82,-206,181,-206","w":650},"\u00a0":{"w":250},"\u00a8":{"d":"553,-614r-143,0r0,-111r143,0r0,111xm300,-614r-143,0r0,-111r143,0r0,111","w":710},"\u00af":{"d":"569,-614r-428,0r0,-94r428,0r0,94","w":710},"\u00b4":{"d":"324,-772r-170,158r-86,0r114,-158r142,0","w":365},"\u00c0":{"d":"436,-809r-86,0r-170,-158r142,0xm730,0r-150,0r-76,-190r-296,0r-73,190r-125,0r279,-725r150,0xm464,-289r-112,-278r-106,278r218,0","w":739},"\u00c1":{"d":"521,-967r-170,158r-86,0r114,-158r142,0xm730,0r-150,0r-76,-190r-296,0r-73,190r-125,0r279,-725r150,0xm464,-289r-112,-278r-106,278r218,0","w":739},"\u00c2":{"d":"562,-809r-114,0r-97,-74r-97,74r-114,0r140,-129r142,0xm730,0r-150,0r-76,-190r-296,0r-73,190r-125,0r279,-725r150,0xm464,-289r-112,-278r-106,278r218,0","w":739},"\u00c4":{"d":"549,-809r-143,0r0,-111r143,0r0,111xm296,-809r-143,0r0,-111r143,0r0,111xm730,0r-150,0r-76,-190r-296,0r-73,190r-125,0r279,-725r150,0xm464,-289r-112,-278r-106,278r218,0","w":739},"\u00c5":{"d":"436,-959v0,-47,-38,-85,-85,-85v-47,0,-85,38,-85,85v0,47,38,85,85,85v47,0,85,-38,85,-85xm522,-959v0,89,-79,156,-171,156v-92,0,-171,-67,-171,-156v0,-89,79,-156,171,-156v92,0,171,67,171,156xm730,0r-150,0r-76,-190r-296,0r-73,190r-125,0r279,-725r150,0xm464,-289r-112,-278r-106,278r218,0","w":739},"\u00c8":{"d":"436,-809r-86,0r-170,-158r142,0xm632,0r-552,0r0,-725r540,0r0,99r-390,0r0,189r311,0r0,99r-311,0r0,239r402,0r0,99","w":659},"\u00c9":{"d":"520,-967r-170,158r-86,0r114,-158r142,0xm632,0r-552,0r0,-725r540,0r0,99r-390,0r0,189r311,0r0,99r-311,0r0,239r402,0r0,99","w":659},"\u00ca":{"d":"561,-809r-114,0r-97,-74r-97,74r-114,0r140,-129r142,0xm632,0r-552,0r0,-725r540,0r0,99r-390,0r0,189r311,0r0,99r-311,0r0,239r402,0r0,99","w":659},"\u00cb":{"d":"548,-809r-143,0r0,-111r143,0r0,111xm295,-809r-143,0r0,-111r143,0r0,111xm632,0r-552,0r0,-725r540,0r0,99r-390,0r0,189r311,0r0,99r-311,0r0,239r402,0r0,99","w":659},"\u00cc":{"d":"241,-809r-86,0r-170,-158r142,0xm230,0r-150,0r0,-725r150,0r0,725","w":310},"\u00cd":{"d":"325,-967r-170,158r-86,0r114,-158r142,0xm230,0r-150,0r0,-725r150,0r0,725","w":310},"\u00ce":{"d":"366,-809r-114,0r-97,-74r-97,74r-114,0r140,-129r142,0xm230,0r-150,0r0,-725r150,0r0,725","w":310},"\u00cf":{"d":"353,-809r-143,0r0,-111r143,0r0,111xm100,-809r-143,0r0,-111r143,0r0,111xm230,0r-150,0r0,-725r150,0r0,725","w":310},"\u00d0":{"d":"506,-174v84,-96,86,-275,7,-379v-76,-99,-157,-68,-283,-73r0,214r153,0r0,99r-153,0r0,214v118,-2,196,16,276,-75xm720,-364v0,102,-40,193,-108,258v-149,140,-310,99,-532,106r0,-313r-72,0r0,-99r72,0r0,-313v227,9,393,-42,539,106v64,64,101,156,101,255","w":759},"\u00d2":{"d":"513,-809r-86,0r-170,-158r142,0xm658,-363v0,-86,-10,-178,-75,-235v-84,-74,-226,-74,-310,0v-65,57,-75,149,-75,235v0,87,10,179,75,236v84,74,226,74,310,0v65,-57,75,-149,75,-236xm428,-751v264,0,396,178,396,388v0,212,-133,389,-396,389v-263,0,-396,-177,-396,-389v0,-212,134,-388,396,-388","w":855},"\u00d3":{"d":"598,-967r-170,158r-86,0r114,-158r142,0xm658,-363v0,-86,-10,-178,-75,-235v-84,-74,-226,-74,-310,0v-65,57,-75,149,-75,235v0,87,10,179,75,236v84,74,226,74,310,0v65,-57,75,-149,75,-236xm428,-751v264,0,396,178,396,388v0,212,-133,389,-396,389v-263,0,-396,-177,-396,-389v0,-212,134,-388,396,-388","w":855},"\u00d4":{"d":"639,-809r-114,0r-97,-74r-97,74r-114,0r140,-129r142,0xm658,-363v0,-86,-10,-178,-75,-235v-84,-74,-226,-74,-310,0v-65,57,-75,149,-75,235v0,87,10,179,75,236v84,74,226,74,310,0v65,-57,75,-149,75,-236xm428,-751v264,0,396,178,396,388v0,212,-133,389,-396,389v-263,0,-396,-177,-396,-389v0,-212,134,-388,396,-388","w":855},"\u00d6":{"d":"626,-809r-143,0r0,-111r143,0r0,111xm373,-809r-143,0r0,-111r143,0r0,111xm658,-363v0,-86,-10,-178,-75,-235v-84,-74,-226,-74,-310,0v-65,57,-75,149,-75,235v0,87,10,179,75,236v84,74,226,74,310,0v65,-57,75,-149,75,-236xm428,-751v264,0,396,178,396,388v0,212,-133,389,-396,389v-263,0,-396,-177,-396,-389v0,-212,134,-388,396,-388","w":855},"\u00d9":{"d":"476,-809r-86,0r-170,-158r142,0xm700,-279v0,89,1,180,-80,241v-120,90,-341,89,-460,0v-82,-61,-80,-152,-80,-241r0,-446r150,0r0,470v0,52,0,105,42,143v59,53,177,52,236,0v42,-38,42,-91,42,-143r0,-470r150,0r0,446","w":780},"\u00da":{"d":"560,-967r-170,158r-86,0r114,-158r142,0xm700,-279v0,89,1,180,-80,241v-120,90,-341,89,-460,0v-82,-61,-80,-152,-80,-241r0,-446r150,0r0,470v0,52,0,105,42,143v59,53,177,52,236,0v42,-38,42,-91,42,-143r0,-470r150,0r0,446","w":780},"\u00db":{"d":"601,-809r-114,0r-97,-74r-97,74r-114,0r140,-129r142,0xm700,-279v0,89,1,180,-80,241v-120,90,-341,89,-460,0v-82,-61,-80,-152,-80,-241r0,-446r150,0r0,470v0,52,0,105,42,143v59,53,177,52,236,0v42,-38,42,-91,42,-143r0,-470r150,0r0,446","w":780},"\u00dc":{"d":"588,-809r-143,0r0,-111r143,0r0,111xm335,-809r-143,0r0,-111r143,0r0,111xm700,-279v0,89,1,180,-80,241v-120,90,-341,89,-460,0v-82,-61,-80,-152,-80,-241r0,-446r150,0r0,470v0,52,0,105,42,143v59,53,177,52,236,0v42,-38,42,-91,42,-143r0,-470r150,0r0,446","w":780},"\u00dd":{"d":"529,-967r-170,158r-86,0r114,-158r142,0xm440,0r-150,0r0,-290r-280,-435r150,0r216,336r207,-336r125,0r-268,435r0,290","w":717},"\u00de":{"d":"230,0r-150,0r0,-725r150,0r0,130v138,2,267,-13,359,55v114,85,105,243,-4,331v-95,77,-216,60,-355,62r0,147xm230,-496r0,250r144,0v113,0,144,-80,144,-134v0,-56,-34,-116,-144,-116r-144,0","w":699},"\u00df":{"d":"268,-364v0,-109,136,-163,136,-252v0,-77,-108,-100,-158,-51v-27,27,-29,63,-29,101r0,566r-142,0r0,-543v0,-73,0,-146,63,-195v127,-98,408,-49,408,120v0,52,-25,102,-76,156v-13,13,-60,62,-60,69v6,45,83,65,123,85v63,32,113,66,113,144v0,107,-94,182,-234,182v-34,0,-121,0,-166,-23r0,-114v62,32,131,43,184,43v49,0,74,-27,74,-51v0,-52,-94,-76,-141,-99v-56,-28,-95,-82,-95,-138","w":687},"\u00e0":{"d":"372,-614r-86,0r-170,-158r142,0xm42,-137v0,-154,176,-181,330,-182v-2,-76,14,-135,-95,-135v-62,0,-124,22,-182,49r0,-104v62,-30,131,-39,198,-39v222,0,222,110,222,216r0,332r-143,0r0,-53v-48,41,-103,71,-168,71v-95,0,-162,-64,-162,-155xm372,-243v-85,-3,-188,18,-188,100v0,40,26,67,76,67v39,0,77,-17,112,-44r0,-123","w":580},"\u00e1":{"d":"457,-772r-170,158r-86,0r114,-158r142,0xm42,-137v0,-154,176,-181,330,-182v-2,-76,14,-135,-95,-135v-62,0,-124,22,-182,49r0,-104v62,-30,131,-39,198,-39v222,0,222,110,222,216r0,332r-143,0r0,-53v-48,41,-103,71,-168,71v-95,0,-162,-64,-162,-155xm372,-243v-85,-3,-188,18,-188,100v0,40,26,67,76,67v39,0,77,-17,112,-44r0,-123","w":580},"\u00e2":{"d":"498,-614r-114,0r-97,-74r-97,74r-114,0r140,-129r142,0xm42,-137v0,-154,176,-181,330,-182v-2,-76,14,-135,-95,-135v-62,0,-124,22,-182,49r0,-104v62,-30,131,-39,198,-39v222,0,222,110,222,216r0,332r-143,0r0,-53v-48,41,-103,71,-168,71v-95,0,-162,-64,-162,-155xm372,-243v-85,-3,-188,18,-188,100v0,40,26,67,76,67v39,0,77,-17,112,-44r0,-123","w":580},"\u00e4":{"d":"485,-614r-143,0r0,-111r143,0r0,111xm232,-614r-143,0r0,-111r143,0r0,111xm42,-137v0,-154,176,-181,330,-182v-2,-76,14,-135,-95,-135v-62,0,-124,22,-182,49r0,-104v62,-30,131,-39,198,-39v222,0,222,110,222,216r0,332r-143,0r0,-53v-48,41,-103,71,-168,71v-95,0,-162,-64,-162,-155xm372,-243v-85,-3,-188,18,-188,100v0,40,26,67,76,67v39,0,77,-17,112,-44r0,-123","w":580},"\u00e5":{"d":"372,-764v0,-47,-38,-85,-85,-85v-47,0,-85,38,-85,85v0,47,38,85,85,85v47,0,85,-38,85,-85xm458,-764v0,89,-79,156,-171,156v-92,0,-171,-67,-171,-156v0,-89,79,-156,171,-156v92,0,171,67,171,156xm42,-137v0,-154,176,-181,330,-182v-2,-76,14,-135,-95,-135v-62,0,-124,22,-182,49r0,-104v62,-30,131,-39,198,-39v222,0,222,110,222,216r0,332r-143,0r0,-53v-48,41,-103,71,-168,71v-95,0,-162,-64,-162,-155xm372,-243v-85,-3,-188,18,-188,100v0,40,26,67,76,67v39,0,77,-17,112,-44r0,-123","w":580},"\u00e8":{"d":"402,-614r-86,0r-170,-158r142,0xm198,-333r212,0v-8,-83,-41,-131,-100,-131v-55,0,-97,43,-112,131xm536,-19v-228,84,-502,34,-501,-254v0,-215,153,-275,269,-275v119,0,250,63,250,257v0,13,-1,27,-2,42r-360,0v0,233,190,181,344,136r0,94","w":597},"\u00e9":{"d":"487,-772r-170,158r-86,0r114,-158r142,0xm198,-333r212,0v-8,-83,-41,-131,-100,-131v-55,0,-97,43,-112,131xm536,-19v-228,84,-502,34,-501,-254v0,-215,153,-275,269,-275v119,0,250,63,250,257v0,13,-1,27,-2,42r-360,0v0,233,190,181,344,136r0,94","w":597},"\u00ea":{"d":"527,-614r-114,0r-97,-74r-97,74r-114,0r140,-129r142,0xm198,-333r212,0v-8,-83,-41,-131,-100,-131v-55,0,-97,43,-112,131xm536,-19v-228,84,-502,34,-501,-254v0,-215,153,-275,269,-275v119,0,250,63,250,257v0,13,-1,27,-2,42r-360,0v0,233,190,181,344,136r0,94","w":597},"\u00eb":{"d":"514,-614r-143,0r0,-111r143,0r0,111xm261,-614r-143,0r0,-111r143,0r0,111xm198,-333r212,0v-8,-83,-41,-131,-100,-131v-55,0,-97,43,-112,131xm536,-19v-228,84,-502,34,-501,-254v0,-215,153,-275,269,-275v119,0,250,63,250,257v0,13,-1,27,-2,42r-360,0v0,233,190,181,344,136r0,94","w":597},"\u00ec":{"d":"232,-614r-86,0r-170,-158r142,0xm217,0r-142,0r0,-530r142,0r0,530"},"\u00ed":{"d":"317,-772r-170,158r-86,0r114,-158r142,0xm217,0r-142,0r0,-530r142,0r0,530"},"\u00ee":{"d":"357,-614r-114,0r-97,-74r-97,74r-114,0r140,-129r142,0xm217,0r-142,0r0,-530r142,0r0,530"},"\u00ef":{"d":"344,-614r-143,0r0,-111r143,0r0,111xm91,-614r-143,0r0,-111r143,0r0,111xm217,0r-142,0r0,-530r142,0r0,530"},"\u00f0":{"d":"584,-265v0,224,-144,283,-271,283v-127,0,-271,-59,-271,-279v0,-224,147,-278,258,-278v22,0,41,2,59,6v-19,-27,-40,-52,-64,-74r-135,49r-21,-57r100,-36v-34,-23,-72,-42,-112,-55r93,-53v49,16,94,38,135,66r137,-50r21,57r-102,37v107,96,173,234,173,384xm442,-265v0,-150,-47,-198,-120,-198v-85,0,-138,63,-138,194v0,135,55,193,129,193v74,0,129,-58,129,-189","w":625},"\u00f2":{"d":"398,-614r-86,0r-170,-158r142,0xm192,-265v0,86,29,189,121,189v29,0,57,-10,78,-31v41,-40,43,-101,43,-158v0,-86,-29,-189,-121,-189v-29,0,-57,10,-78,31v-41,40,-43,101,-43,158xm313,-548v186,0,278,133,278,283v0,149,-91,283,-278,283v-186,0,-278,-133,-278,-283v0,-149,91,-283,278,-283","w":625},"\u00f3":{"d":"483,-772r-170,158r-86,0r114,-158r142,0xm192,-265v0,86,29,189,121,189v29,0,57,-10,78,-31v41,-40,43,-101,43,-158v0,-86,-29,-189,-121,-189v-29,0,-57,10,-78,31v-41,40,-43,101,-43,158xm313,-548v186,0,278,133,278,283v0,149,-91,283,-278,283v-186,0,-278,-133,-278,-283v0,-149,91,-283,278,-283","w":625},"\u00f4":{"d":"524,-614r-114,0r-97,-74r-97,74r-114,0r140,-129r142,0xm192,-265v0,86,29,189,121,189v29,0,57,-10,78,-31v41,-40,43,-101,43,-158v0,-86,-29,-189,-121,-189v-29,0,-57,10,-78,31v-41,40,-43,101,-43,158xm313,-548v186,0,278,133,278,283v0,149,-91,283,-278,283v-186,0,-278,-133,-278,-283v0,-149,91,-283,278,-283","w":625},"\u00f6":{"d":"511,-614r-143,0r0,-111r143,0r0,111xm258,-614r-143,0r0,-111r143,0r0,111xm192,-265v0,86,29,189,121,189v29,0,57,-10,78,-31v41,-40,43,-101,43,-158v0,-86,-29,-189,-121,-189v-29,0,-57,10,-78,31v-41,40,-43,101,-43,158xm313,-548v186,0,278,133,278,283v0,149,-91,283,-278,283v-186,0,-278,-133,-278,-283v0,-149,91,-283,278,-283","w":625},"\u00f9":{"d":"397,-614r-86,0r-170,-158r142,0xm217,-180v0,50,1,104,72,104v46,0,87,-22,118,-57r0,-397r142,0r0,530r-142,0r0,-60v-66,78,-211,114,-290,33v-44,-44,-42,-111,-42,-177r0,-326r142,0r0,350","w":623},"\u00fa":{"d":"482,-772r-170,158r-86,0r114,-158r142,0xm217,-180v0,50,1,104,72,104v46,0,87,-22,118,-57r0,-397r142,0r0,530r-142,0r0,-60v-66,78,-211,114,-290,33v-44,-44,-42,-111,-42,-177r0,-326r142,0r0,350","w":623},"\u00fb":{"d":"523,-614r-114,0r-97,-74r-97,74r-114,0r140,-129r142,0xm217,-180v0,50,1,104,72,104v46,0,87,-22,118,-57r0,-397r142,0r0,530r-142,0r0,-60v-66,78,-211,114,-290,33v-44,-44,-42,-111,-42,-177r0,-326r142,0r0,350","w":623},"\u00fc":{"d":"510,-614r-143,0r0,-111r143,0r0,111xm257,-614r-143,0r0,-111r143,0r0,111xm217,-180v0,50,1,104,72,104v46,0,87,-22,118,-57r0,-397r142,0r0,530r-142,0r0,-60v-66,78,-211,114,-290,33v-44,-44,-42,-111,-42,-177r0,-326r142,0r0,350","w":623},"\u00fd":{"d":"451,-772r-170,158r-86,0r114,-158r142,0xm552,-530r-264,723r-119,0r58,-158r-217,-565r142,0r146,371r136,-371r118,0","w":561},"\u00fe":{"d":"567,-304v0,95,-24,165,-60,218v-48,71,-147,113,-290,102r0,177r-142,0r0,-963r142,0r0,321v37,-58,94,-99,170,-99v75,0,180,41,180,244xm268,-76v117,0,142,-97,142,-214v0,-122,-25,-164,-79,-164v-47,0,-94,34,-114,84r0,288v17,4,34,6,51,6","w":601},"\u00ff":{"d":"479,-614r-143,0r0,-111r143,0r0,111xm226,-614r-143,0r0,-111r143,0r0,111xm552,-530r-264,723r-119,0r58,-158r-217,-565r142,0r146,371r136,-371r118,0","w":561},"\u0100":{"d":"565,-809r-428,0r0,-94r428,0r0,94xm730,0r-150,0r-76,-190r-296,0r-73,190r-125,0r279,-725r150,0xm464,-289r-112,-278r-106,278r218,0","w":739},"\u0101":{"d":"501,-614r-428,0r0,-94r428,0r0,94xm42,-137v0,-154,176,-181,330,-182v-2,-76,14,-135,-95,-135v-62,0,-124,22,-182,49r0,-104v62,-30,131,-39,198,-39v222,0,222,110,222,216r0,332r-143,0r0,-53v-48,41,-103,71,-168,71v-95,0,-162,-64,-162,-155xm372,-243v-85,-3,-188,18,-188,100v0,40,26,67,76,67v39,0,77,-17,112,-44r0,-123","w":580},"\u0102":{"d":"523,-950v0,81,-83,131,-172,131v-89,0,-172,-50,-172,-131r114,0v0,31,26,56,58,56v32,0,58,-25,58,-56r114,0xm730,0r-150,0r-76,-190r-296,0r-73,190r-125,0r279,-725r150,0xm464,-289r-112,-278r-106,278r218,0","w":739},"\u0103":{"d":"459,-755v0,81,-83,131,-172,131v-89,0,-172,-50,-172,-131r114,0v0,31,26,56,58,56v32,0,58,-25,58,-56r114,0xm42,-137v0,-154,176,-181,330,-182v-2,-76,14,-135,-95,-135v-62,0,-124,22,-182,49r0,-104v62,-30,131,-39,198,-39v222,0,222,110,222,216r0,332r-143,0r0,-53v-48,41,-103,71,-168,71v-95,0,-162,-64,-162,-155xm372,-243v-85,-3,-188,18,-188,100v0,40,26,67,76,67v39,0,77,-17,112,-44r0,-123","w":580},"\u0106":{"d":"585,-967r-170,158r-86,0r114,-158r142,0xm32,-362v0,-211,127,-389,390,-389v76,0,159,14,238,41r0,112v-132,-47,-289,-94,-391,0v-62,57,-71,149,-71,236v0,86,9,178,71,235v113,103,270,38,391,-26r0,124v-76,37,-160,55,-242,55v-259,0,-386,-178,-386,-388","w":700},"\u0107":{"d":"505,-772r-170,158r-86,0r114,-158r142,0xm184,-265v0,91,32,189,158,189v54,0,115,-16,174,-32r0,102v-59,16,-120,24,-174,24v-205,0,-300,-121,-300,-283v0,-125,60,-283,302,-283v52,0,113,7,172,21r0,99v-60,-13,-120,-26,-171,-26v-129,0,-161,95,-161,189","w":557},"\u0108":{"d":"626,-809r-114,0r-97,-74r-97,74r-114,0r140,-129r142,0xm32,-362v0,-211,127,-389,390,-389v76,0,159,14,238,41r0,112v-132,-47,-289,-94,-391,0v-62,57,-71,149,-71,236v0,86,9,178,71,235v113,103,270,38,391,-26r0,124v-76,37,-160,55,-242,55v-259,0,-386,-178,-386,-388","w":700},"\u0109":{"d":"546,-614r-114,0r-97,-74r-97,74r-114,0r140,-129r142,0xm184,-265v0,91,32,189,158,189v54,0,115,-16,174,-32r0,102v-59,16,-120,24,-174,24v-205,0,-300,-121,-300,-283v0,-125,60,-283,302,-283v52,0,113,7,172,21r0,99v-60,-13,-120,-26,-171,-26v-129,0,-161,95,-161,189","w":557},"\u010a":{"d":"486,-809r-142,0r0,-111r142,0r0,111xm32,-362v0,-211,127,-389,390,-389v76,0,159,14,238,41r0,112v-132,-47,-289,-94,-391,0v-62,57,-71,149,-71,236v0,86,9,178,71,235v113,103,270,38,391,-26r0,124v-76,37,-160,55,-242,55v-259,0,-386,-178,-386,-388","w":700},"\u010b":{"d":"406,-614r-142,0r0,-111r142,0r0,111xm184,-265v0,91,32,189,158,189v54,0,115,-16,174,-32r0,102v-59,16,-120,24,-174,24v-205,0,-300,-121,-300,-283v0,-125,60,-283,302,-283v52,0,113,7,172,21r0,99v-60,-13,-120,-26,-171,-26v-129,0,-161,95,-161,189","w":557},"\u010c":{"d":"32,-362v0,-211,127,-389,390,-389v76,0,159,14,238,41r0,112v-132,-47,-289,-94,-391,0v-62,57,-71,149,-71,236v0,86,9,178,71,235v113,103,270,38,391,-26r0,124v-76,37,-160,55,-242,55v-259,0,-386,-178,-386,-388xm415,-864r97,-74r114,0r-140,129r-142,0r-140,-129r114,0","w":700},"\u010d":{"d":"184,-265v0,91,32,189,158,189v54,0,115,-16,174,-32r0,102v-59,16,-120,24,-174,24v-205,0,-300,-121,-300,-283v0,-125,60,-283,302,-283v52,0,113,7,172,21r0,99v-60,-13,-120,-26,-171,-26v-129,0,-161,95,-161,189xm335,-669r97,-74r114,0r-140,129r-142,0r-140,-129r114,0","w":557},"\u010e":{"d":"506,-174v84,-96,86,-275,7,-379v-76,-99,-157,-68,-283,-73r0,527v118,-2,196,16,276,-75xm720,-364v0,102,-40,193,-108,258v-149,140,-310,99,-532,106r0,-725v227,9,393,-42,539,106v64,64,101,156,101,255xm380,-864r97,-74r114,0r-140,129r-142,0r-140,-129r114,0","w":759},"\u010f":{"d":"35,-249v0,-239,149,-314,350,-297r0,-224r142,0r0,770r-142,0r0,-72v-35,53,-88,90,-154,90v-88,0,-196,-65,-196,-267xm301,-909r97,-74r114,0r-140,129r-142,0r-140,-129r114,0xm334,-454v-114,0,-142,88,-142,198v0,124,37,180,95,180v46,0,84,-36,98,-82r0,-291v-17,-3,-34,-5,-51,-5","w":601},"\u0112":{"d":"564,-809r-428,0r0,-94r428,0r0,94xm632,0r-552,0r0,-725r540,0r0,99r-390,0r0,189r311,0r0,99r-311,0r0,239r402,0r0,99","w":659},"\u0113":{"d":"530,-614r-428,0r0,-94r428,0r0,94xm198,-333r212,0v-8,-83,-41,-131,-100,-131v-55,0,-97,43,-112,131xm536,-19v-228,84,-502,34,-501,-254v0,-215,153,-275,269,-275v119,0,250,63,250,257v0,13,-1,27,-2,42r-360,0v0,233,190,181,344,136r0,94","w":597},"\u0114":{"d":"522,-950v0,81,-83,131,-172,131v-89,0,-172,-50,-172,-131r114,0v0,31,26,56,58,56v32,0,58,-25,58,-56r114,0xm632,0r-552,0r0,-725r540,0r0,99r-390,0r0,189r311,0r0,99r-311,0r0,239r402,0r0,99","w":659},"\u0115":{"d":"488,-755v0,81,-83,131,-172,131v-89,0,-172,-50,-172,-131r114,0v0,31,26,56,58,56v32,0,58,-25,58,-56r114,0xm198,-333r212,0v-8,-83,-41,-131,-100,-131v-55,0,-97,43,-112,131xm536,-19v-228,84,-502,34,-501,-254v0,-215,153,-275,269,-275v119,0,250,63,250,257v0,13,-1,27,-2,42r-360,0v0,233,190,181,344,136r0,94","w":597},"\u0116":{"d":"421,-809r-142,0r0,-111r142,0r0,111xm632,0r-552,0r0,-725r540,0r0,99r-390,0r0,189r311,0r0,99r-311,0r0,239r402,0r0,99","w":659},"\u0117":{"d":"387,-614r-142,0r0,-111r142,0r0,111xm198,-333r212,0v-8,-83,-41,-131,-100,-131v-55,0,-97,43,-112,131xm536,-19v-228,84,-502,34,-501,-254v0,-215,153,-275,269,-275v119,0,250,63,250,257v0,13,-1,27,-2,42r-360,0v0,233,190,181,344,136r0,94","w":597},"\u011a":{"d":"632,0r-552,0r0,-725r540,0r0,99r-390,0r0,189r311,0r0,99r-311,0r0,239r402,0r0,99xm350,-864r97,-74r114,0r-140,129r-142,0r-140,-129r114,0","w":659},"\u011b":{"d":"316,-669r97,-74r114,0r-140,129r-142,0r-140,-129r114,0xm198,-333r212,0v-8,-83,-41,-131,-100,-131v-55,0,-97,43,-112,131xm536,-19v-228,84,-502,34,-501,-254v0,-215,153,-275,269,-275v119,0,250,63,250,257v0,13,-1,27,-2,42r-360,0v0,233,190,181,344,136r0,94","w":597},"\u011c":{"d":"643,-809r-114,0r-97,-74r-97,74r-114,0r140,-129r142,0xm32,-362v0,-154,82,-389,408,-389v81,0,168,15,252,42r0,110v-140,-46,-307,-93,-417,1v-66,56,-77,149,-77,236v0,86,12,178,77,235v68,61,169,65,267,38r0,-170r-76,0r0,-99r226,0r0,331v-84,30,-171,53,-263,53v-256,0,-397,-173,-397,-388","w":731},"\u011d":{"d":"495,-614r-114,0r-97,-74r-97,74r-114,0r140,-129r142,0xm277,-231v84,0,85,-66,85,-111v0,-35,-1,-73,-28,-95v-16,-12,-37,-17,-57,-17v-84,0,-85,66,-85,112v0,35,1,72,28,94v16,13,36,17,57,17xm35,-342v0,-83,60,-206,242,-206v40,0,81,6,118,22v44,-41,99,-69,159,-69r0,94v-33,0,-65,5,-94,18v37,37,59,88,59,141v0,128,-124,227,-290,203v-6,29,8,35,66,50v108,29,268,11,274,144v5,108,-129,140,-291,138v-55,0,-153,-1,-236,-19r0,-108v99,21,200,33,304,33v37,0,81,-1,81,-29v0,-28,-29,-30,-36,-32r-140,-27v-58,-11,-139,-31,-139,-112v0,-25,10,-49,27,-68v-64,-36,-104,-100,-104,-173","w":568},"\u0120":{"d":"503,-809r-142,0r0,-111r142,0r0,111xm32,-362v0,-154,82,-389,408,-389v81,0,168,15,252,42r0,110v-140,-46,-307,-93,-417,1v-66,56,-77,149,-77,236v0,86,12,178,77,235v68,61,169,65,267,38r0,-170r-76,0r0,-99r226,0r0,331v-84,30,-171,53,-263,53v-256,0,-397,-173,-397,-388","w":731},"\u0121":{"d":"355,-614r-142,0r0,-111r142,0r0,111xm277,-231v84,0,85,-66,85,-111v0,-35,-1,-73,-28,-95v-16,-12,-37,-17,-57,-17v-84,0,-85,66,-85,112v0,35,1,72,28,94v16,13,36,17,57,17xm35,-342v0,-83,60,-206,242,-206v40,0,81,6,118,22v44,-41,99,-69,159,-69r0,94v-33,0,-65,5,-94,18v37,37,59,88,59,141v0,128,-124,227,-290,203v-6,29,8,35,66,50v108,29,268,11,274,144v5,108,-129,140,-291,138v-55,0,-153,-1,-236,-19r0,-108v99,21,200,33,304,33v37,0,81,-1,81,-29v0,-28,-29,-30,-36,-32r-140,-27v-58,-11,-139,-31,-139,-112v0,-25,10,-49,27,-68v-64,-36,-104,-100,-104,-173","w":568},"\u0124":{"d":"601,-809r-114,0r-97,-74r-97,74r-114,0r140,-129r142,0xm700,0r-150,0r0,-313r-320,0r0,313r-150,0r0,-725r150,0r0,313r320,0r0,-313r150,0r0,725","w":780},"\u0125":{"d":"523,-854r-114,0r-97,-74r-97,74r-114,0r140,-129r142,0xm407,-351v0,-49,-1,-103,-71,-103v-47,0,-87,22,-119,57r0,397r-142,0r0,-770r142,0r0,300v46,-47,104,-78,175,-78v160,0,157,135,157,220r0,328r-142,0r0,-351","w":623},"\u012a":{"d":"369,-809r-428,0r0,-94r428,0r0,94xm230,0r-150,0r0,-725r150,0r0,725","w":310},"\u012b":{"d":"360,-614r-428,0r0,-94r428,0r0,94xm217,0r-142,0r0,-530r142,0r0,530"},"\u012c":{"d":"327,-950v0,81,-83,131,-172,131v-89,0,-172,-50,-172,-131r114,0v0,31,26,56,58,56v32,0,58,-25,58,-56r114,0xm230,0r-150,0r0,-725r150,0r0,725","w":310},"\u012d":{"d":"318,-755v0,81,-83,131,-172,131v-89,0,-172,-50,-172,-131r114,0v0,31,26,56,58,56v32,0,58,-25,58,-56r114,0xm217,0r-142,0r0,-530r142,0r0,530"},"\u0130":{"d":"226,-809r-142,0r0,-111r142,0r0,111xm230,0r-150,0r0,-725r150,0r0,725","w":310},"\u0131":{"d":"217,0r-142,0r0,-530r142,0r0,530"},"\u0134":{"d":"463,-809r-114,0r-97,-74r-97,74r-114,0r140,-129r142,0xm159,-73v91,0,115,-84,115,-176r0,-476r150,0r0,449v0,90,-1,178,-64,241v-67,67,-230,77,-350,38r0,-110v47,15,105,34,149,34","w":503},"\u0135":{"d":"357,-614r-114,0r-97,-74r-97,74r-114,0r140,-129r142,0xm-1,117v75,0,76,-58,76,-126r0,-521r142,0r0,490v0,79,-1,158,-46,205v-47,50,-171,57,-246,32r0,-100v22,8,54,20,74,20"},"\u0139":{"d":"474,-967r-170,158r-86,0r114,-158r142,0xm596,0r-516,0r0,-725r150,0r0,626r366,0r0,99","w":606},"\u013a":{"d":"317,-1012r-170,158r-86,0r114,-158r142,0xm217,0r-142,0r0,-770r142,0r0,770"},"\u013d":{"d":"596,0r-516,0r0,-725r150,0r0,626r366,0r0,99xm303,-864r97,-74r114,0r-140,129r-142,0r-140,-129r114,0","w":606},"\u013e":{"d":"217,0r-142,0r0,-770r142,0r0,770xm146,-909r97,-74r114,0r-140,129r-142,0r-140,-129r114,0"},"\u0143":{"d":"560,-967r-170,158r-86,0r114,-158r142,0xm205,0r-125,0r0,-725r150,0r345,532r0,-532r125,0r0,725r-150,0r-345,-532r0,532","w":780},"\u0144":{"d":"482,-772r-170,158r-86,0r114,-158r142,0xm407,-351v0,-49,-1,-103,-71,-103v-47,0,-87,22,-119,57r0,397r-142,0r0,-530r142,0r0,60v46,-47,104,-78,175,-78v160,0,157,135,157,220r0,328r-142,0r0,-351","w":623},"\u0147":{"d":"205,0r-125,0r0,-725r150,0r345,532r0,-532r125,0r0,725r-150,0r-345,-532r0,532xm390,-864r97,-74r114,0r-140,129r-142,0r-140,-129r114,0","w":780},"\u0148":{"d":"407,-351v0,-49,-1,-103,-71,-103v-47,0,-87,22,-119,57r0,397r-142,0r0,-530r142,0r0,60v46,-47,104,-78,175,-78v160,0,157,135,157,220r0,328r-142,0r0,-351xm312,-669r97,-74r114,0r-140,129r-142,0r-140,-129r114,0","w":623},"\u014c":{"d":"642,-809r-428,0r0,-94r428,0r0,94xm658,-363v0,-86,-10,-178,-75,-235v-84,-74,-226,-74,-310,0v-65,57,-75,149,-75,235v0,87,10,179,75,236v84,74,226,74,310,0v65,-57,75,-149,75,-236xm428,-751v264,0,396,178,396,388v0,212,-133,389,-396,389v-263,0,-396,-177,-396,-389v0,-212,134,-388,396,-388","w":855},"\u014d":{"d":"527,-614r-428,0r0,-94r428,0r0,94xm192,-265v0,86,29,189,121,189v29,0,57,-10,78,-31v41,-40,43,-101,43,-158v0,-86,-29,-189,-121,-189v-29,0,-57,10,-78,31v-41,40,-43,101,-43,158xm313,-548v186,0,278,133,278,283v0,149,-91,283,-278,283v-186,0,-278,-133,-278,-283v0,-149,91,-283,278,-283","w":625},"\u014e":{"d":"600,-950v0,81,-83,131,-172,131v-89,0,-172,-50,-172,-131r114,0v0,31,26,56,58,56v32,0,58,-25,58,-56r114,0xm658,-363v0,-86,-10,-178,-75,-235v-84,-74,-226,-74,-310,0v-65,57,-75,149,-75,235v0,87,10,179,75,236v84,74,226,74,310,0v65,-57,75,-149,75,-236xm428,-751v264,0,396,178,396,388v0,212,-133,389,-396,389v-263,0,-396,-177,-396,-389v0,-212,134,-388,396,-388","w":855},"\u014f":{"d":"485,-755v0,81,-83,131,-172,131v-89,0,-172,-50,-172,-131r114,0v0,31,26,56,58,56v32,0,58,-25,58,-56r114,0xm192,-265v0,86,29,189,121,189v29,0,57,-10,78,-31v41,-40,43,-101,43,-158v0,-86,-29,-189,-121,-189v-29,0,-57,10,-78,31v-41,40,-43,101,-43,158xm313,-548v186,0,278,133,278,283v0,149,-91,283,-278,283v-186,0,-278,-133,-278,-283v0,-149,91,-283,278,-283","w":625},"\u0150":{"d":"463,-967r-171,158r-86,0r114,-158r143,0xm712,-967r-171,158r-85,0r114,-158r142,0xm658,-363v0,-86,-10,-178,-75,-235v-84,-74,-226,-74,-310,0v-65,57,-75,149,-75,235v0,87,10,179,75,236v84,74,226,74,310,0v65,-57,75,-149,75,-236xm428,-751v264,0,396,178,396,388v0,212,-133,389,-396,389v-263,0,-396,-177,-396,-389v0,-212,134,-388,396,-388","w":855},"\u0151":{"d":"349,-772r-171,158r-86,0r114,-158r143,0xm598,-772r-171,158r-85,0r114,-158r142,0xm192,-265v0,86,29,189,121,189v29,0,57,-10,78,-31v41,-40,43,-101,43,-158v0,-86,-29,-189,-121,-189v-29,0,-57,10,-78,31v-41,40,-43,101,-43,158xm313,-548v186,0,278,133,278,283v0,149,-91,283,-278,283v-186,0,-278,-133,-278,-283v0,-149,91,-283,278,-283","w":625},"\u0154":{"d":"519,-967r-170,158r-86,0r114,-158r142,0xm613,-507v0,85,-44,180,-171,214r258,293r-174,0r-243,-277r-53,0r0,277r-150,0r0,-725v174,7,345,-29,459,57v53,40,74,100,74,161xm463,-507v0,-123,-108,-119,-158,-119r-75,0r0,250v77,-2,144,9,195,-34v28,-25,38,-63,38,-97","w":697},"\u0155":{"d":"427,-772r-170,158r-86,0r114,-158r142,0xm438,-428v-104,-27,-193,25,-221,111r0,317r-142,0r0,-530r142,0r0,103v42,-83,107,-135,221,-118r0,117","w":455},"\u0158":{"d":"613,-507v0,85,-44,180,-171,214r258,293r-174,0r-243,-277r-53,0r0,277r-150,0r0,-725v174,7,345,-29,459,57v53,40,74,100,74,161xm349,-864r97,-74r114,0r-140,129r-142,0r-140,-129r114,0xm463,-507v0,-123,-108,-119,-158,-119r-75,0r0,250v77,-2,144,9,195,-34v28,-25,38,-63,38,-97","w":697},"\u0159":{"d":"438,-428v-104,-27,-193,25,-221,111r0,317r-142,0r0,-530r142,0r0,103v42,-83,107,-135,221,-118r0,117xm257,-669r97,-74r114,0r-140,129r-142,0r-140,-129r114,0","w":455},"\u015a":{"d":"505,-967r-170,158r-86,0r114,-158r142,0xm628,-205v0,153,-143,231,-344,231v-51,0,-156,-2,-244,-52r0,-131v90,52,190,84,283,84v81,0,155,-24,155,-100v0,-63,-53,-96,-155,-129r-67,-22v-171,-56,-216,-107,-216,-196v0,-234,309,-275,513,-191r0,114v-71,-27,-143,-55,-222,-55v-66,0,-141,19,-141,93v0,59,48,74,158,110r68,22v155,51,212,125,212,222","w":669},"\u015b":{"d":"440,-772r-170,158r-86,0r114,-158r142,0xm498,-167v0,112,-100,185,-250,185v-38,0,-132,0,-189,-26r0,-108v71,32,150,40,210,40v54,0,87,-24,87,-62v0,-39,-36,-52,-65,-62r-116,-37v-66,-22,-116,-76,-116,-146v2,-149,223,-197,386,-145r0,101v-52,-13,-104,-27,-153,-27v-46,0,-91,12,-91,48v0,30,34,41,62,50v103,36,235,50,235,189","w":539},"\u015c":{"d":"545,-809r-114,0r-97,-74r-97,74r-114,0r140,-129r142,0xm628,-205v0,153,-143,231,-344,231v-51,0,-156,-2,-244,-52r0,-131v90,52,190,84,283,84v81,0,155,-24,155,-100v0,-63,-53,-96,-155,-129r-67,-22v-171,-56,-216,-107,-216,-196v0,-234,309,-275,513,-191r0,114v-71,-27,-143,-55,-222,-55v-66,0,-141,19,-141,93v0,59,48,74,158,110r68,22v155,51,212,125,212,222","w":669},"\u015d":{"d":"481,-614r-114,0r-97,-74r-97,74r-114,0r140,-129r142,0xm498,-167v0,112,-100,185,-250,185v-38,0,-132,0,-189,-26r0,-108v71,32,150,40,210,40v54,0,87,-24,87,-62v0,-39,-36,-52,-65,-62r-116,-37v-66,-22,-116,-76,-116,-146v2,-149,223,-197,386,-145r0,101v-52,-13,-104,-27,-153,-27v-46,0,-91,12,-91,48v0,30,34,41,62,50v103,36,235,50,235,189","w":539},"\u0164":{"d":"650,-626r-245,0r0,626r-150,0r0,-626r-245,0r0,-99r640,0r0,99xm330,-864r97,-74r114,0r-140,129r-142,0r-140,-129r114,0","w":659},"\u0165":{"d":"273,-172v0,52,1,96,69,96v17,0,48,-4,69,-7r0,94v-34,4,-69,7,-102,7v-174,0,-179,-80,-179,-208r0,-251r-94,0r0,-84r94,0r0,-125r143,0r0,125r138,0r0,84r-138,0r0,269xm214,-909r97,-74r114,0r-140,129r-142,0r-140,-129r114,0","w":428},"\u016a":{"d":"604,-809r-428,0r0,-94r428,0r0,94xm700,-279v0,89,1,180,-80,241v-120,90,-341,89,-460,0v-82,-61,-80,-152,-80,-241r0,-446r150,0r0,470v0,52,0,105,42,143v59,53,177,52,236,0v42,-38,42,-91,42,-143r0,-470r150,0r0,446","w":780},"\u016b":{"d":"526,-614r-428,0r0,-94r428,0r0,94xm217,-180v0,50,1,104,72,104v46,0,87,-22,118,-57r0,-397r142,0r0,530r-142,0r0,-60v-66,78,-211,114,-290,33v-44,-44,-42,-111,-42,-177r0,-326r142,0r0,350","w":623},"\u016c":{"d":"562,-950v0,81,-83,131,-172,131v-89,0,-172,-50,-172,-131r114,0v0,31,26,56,58,56v32,0,58,-25,58,-56r114,0xm700,-279v0,89,1,180,-80,241v-120,90,-341,89,-460,0v-82,-61,-80,-152,-80,-241r0,-446r150,0r0,470v0,52,0,105,42,143v59,53,177,52,236,0v42,-38,42,-91,42,-143r0,-470r150,0r0,446","w":780},"\u016d":{"d":"484,-755v0,81,-83,131,-172,131v-89,0,-172,-50,-172,-131r114,0v0,31,26,56,58,56v32,0,58,-25,58,-56r114,0xm217,-180v0,50,1,104,72,104v46,0,87,-22,118,-57r0,-397r142,0r0,530r-142,0r0,-60v-66,78,-211,114,-290,33v-44,-44,-42,-111,-42,-177r0,-326r142,0r0,350","w":623},"\u016e":{"d":"475,-959v0,-47,-38,-85,-85,-85v-47,0,-85,38,-85,85v0,47,38,85,85,85v47,0,85,-38,85,-85xm561,-959v0,89,-79,156,-171,156v-92,0,-171,-67,-171,-156v0,-89,79,-156,171,-156v92,0,171,67,171,156xm700,-279v0,89,1,180,-80,241v-120,90,-341,89,-460,0v-82,-61,-80,-152,-80,-241r0,-446r150,0r0,470v0,52,0,105,42,143v59,53,177,52,236,0v42,-38,42,-91,42,-143r0,-470r150,0r0,446","w":780},"\u016f":{"d":"397,-764v0,-47,-38,-85,-85,-85v-47,0,-85,38,-85,85v0,47,38,85,85,85v47,0,85,-38,85,-85xm483,-764v0,89,-79,156,-171,156v-92,0,-171,-67,-171,-156v0,-89,79,-156,171,-156v92,0,171,67,171,156xm217,-180v0,50,1,104,72,104v46,0,87,-22,118,-57r0,-397r142,0r0,530r-142,0r0,-60v-66,78,-211,114,-290,33v-44,-44,-42,-111,-42,-177r0,-326r142,0r0,350","w":623},"\u0170":{"d":"426,-967r-171,158r-86,0r114,-158r143,0xm675,-967r-171,158r-85,0r114,-158r142,0xm700,-279v0,89,1,180,-80,241v-120,90,-341,89,-460,0v-82,-61,-80,-152,-80,-241r0,-446r150,0r0,470v0,52,0,105,42,143v59,53,177,52,236,0v42,-38,42,-91,42,-143r0,-470r150,0r0,446","w":780},"\u0171":{"d":"347,-772r-171,158r-86,0r114,-158r143,0xm596,-772r-171,158r-85,0r114,-158r142,0xm217,-180v0,50,1,104,72,104v46,0,87,-22,118,-57r0,-397r142,0r0,530r-142,0r0,-60v-66,78,-211,114,-290,33v-44,-44,-42,-111,-42,-177r0,-326r142,0r0,350","w":623},"\u0174":{"d":"738,-809r-114,0r-97,-74r-97,74r-114,0r140,-129r142,0xm1044,-725r-174,725r-194,0r-151,-502r-131,502r-197,0r-187,-725r150,0r149,576r149,-576r150,0r173,577r138,-577r125,0","w":1053},"\u0175":{"d":"620,-614r-114,0r-97,-74r-97,74r-114,0r140,-129r142,0xm808,-530r-141,530r-174,0r-77,-303r-82,303r-167,0r-157,-530r128,0r115,389r106,-389r128,0r99,388r104,-388r118,0","w":818},"\u0176":{"d":"570,-809r-114,0r-97,-74r-97,74r-114,0r140,-129r142,0xm440,0r-150,0r0,-290r-280,-435r150,0r216,336r207,-336r125,0r-268,435r0,290","w":717},"\u0177":{"d":"492,-614r-114,0r-97,-74r-97,74r-114,0r140,-129r142,0xm552,-530r-264,723r-119,0r58,-158r-217,-565r142,0r146,371r136,-371r118,0","w":561},"\u0178":{"d":"557,-809r-143,0r0,-111r143,0r0,111xm304,-809r-143,0r0,-111r143,0r0,111xm440,0r-150,0r0,-290r-280,-435r150,0r216,336r207,-336r125,0r-268,435r0,290","w":717},"\u0179":{"d":"511,-967r-170,158r-86,0r114,-158r142,0xm642,0r-602,0r0,-127r453,-499r-435,0r0,-99r584,0r0,127r-453,499r453,0r0,99","w":681},"\u017a":{"d":"449,-772r-170,158r-86,0r114,-158r142,0xm516,0r-474,0r0,-111r321,-325r-307,0r0,-94r460,0r0,111r-321,325r321,0r0,94","w":557},"\u017b":{"d":"411,-809r-142,0r0,-111r142,0r0,111xm642,0r-602,0r0,-127r453,-499r-435,0r0,-99r584,0r0,127r-453,499r453,0r0,99","w":681},"\u017c":{"d":"349,-614r-142,0r0,-111r142,0r0,111xm516,0r-474,0r0,-111r321,-325r-307,0r0,-94r460,0r0,111r-321,325r321,0r0,94","w":557},"\u017d":{"d":"642,0r-602,0r0,-127r453,-499r-435,0r0,-99r584,0r0,127r-453,499r453,0r0,99xm341,-864r97,-74r114,0r-140,129r-142,0r-140,-129r114,0","w":681},"\u017e":{"d":"516,0r-474,0r0,-111r321,-325r-307,0r0,-94r460,0r0,111r-321,325r321,0r0,94xm279,-669r97,-74r114,0r-140,129r-142,0r-140,-129r114,0","w":557},"\u01cd":{"d":"730,0r-150,0r-76,-190r-296,0r-73,190r-125,0r279,-725r150,0xm351,-864r97,-74r114,0r-140,129r-142,0r-140,-129r114,0xm464,-289r-112,-278r-106,278r218,0","w":739},"\u01ce":{"d":"42,-137v0,-154,176,-181,330,-182v-2,-76,14,-135,-95,-135v-62,0,-124,22,-182,49r0,-104v62,-30,131,-39,198,-39v222,0,222,110,222,216r0,332r-143,0r0,-53v-48,41,-103,71,-168,71v-95,0,-162,-64,-162,-155xm287,-669r97,-74r114,0r-140,129r-142,0r-140,-129r114,0xm372,-243v-85,-3,-188,18,-188,100v0,40,26,67,